5
2 20
-6.807497978210449219e+00
1.007170391082763672e+01
5.848021984100341797e+00
1.726364046335220337e-01
-1.120332622528076172e+01
-4.049510002136230469e+00
2.997581660747528076e-01
-2.987730264663696289e+00
-3.184832930564880371e-01
1.663473486900329590e+00
2.851362943649291992e+00
-7.088027000427246094e+00
-1.509135246276855469e+00
4.193055629730224609e+00
-2.350751161575317383e+00
-1.725325107574462891e+00
2.709807395935058594e+00
-1.088235080242156982e-01
-1.456387996673583984e+00
-3.476281166076660156e+00
1.563563048839569092e-01
2.361826896667480469e-01
2.266171723604202271e-01
-2.154392719268798828e+00
4.276493191719055176e-02
-2.097174078226089478e-01
2.625305950641632080e-01
1.276699751615524292e-01
4.093378186225891113e-01
1.016935825347900391e+00
1.265256762504577637e+00
4.349002540111541748e-01
-1.937527209520339966e-02
9.935542345046997070e-01
2.078804820775985718e-01
-7.420912981033325195e-01
-1.663548588752746582e+00
2.501366138458251953e-01
-4.519602954387664795e-01
-3.015958070755004883e-01
20 20
2.120850980281829834e-02
1.319809705018997192e-01
-9.595075622200965881e-03
1.473664399236440659e-02
2.618980780243873596e-02
-4.607831593602895737e-03
-4.091962426900863647e-02
-4.529584571719169617e-02
7.987163960933685303e-03
4.984024167060852051e-02
-1.714295521378517151e-02
6.385722756385803223e-02
-6.903608888387680054e-02
-1.276824437081813812e-02
5.280321091413497925e-02
5.262049846351146698e-03
-7.904497534036636353e-02
1.066201459616422653e-02
-2.725343964993953705e-02
5.071120336651802063e-03
-3.075546920299530029e-01
3.216536045074462891e-01
2.436335235834121704e-01
1.654331982135772705e-01
-9.282505512237548828e-02
-5.108448117971420288e-02
-7.844342291355133057e-02
7.762804627418518066e-02
-1.598950475454330444e-01
-2.513347268104553223e-01
1.755319237709045410e-01
-2.758852541446685791e-01
9.091675281524658203e-02
-3.514983952045440674e-01
1.496545970439910889e-01
-2.255833297967910767e-01
1.615158170461654663e-01
2.219846695661544800e-01
1.349998265504837036e-01
-3.283256590366363525e-01
9.473429992794990540e-03
1.454329211264848709e-02
7.426833361387252808e-02
1.454511284828186035e-02
1.915555819869041443e-02
-3.989572450518608093e-02
-1.408582832664251328e-02
1.486543864011764526e-01
1.279489398002624512e-01
-1.781031787395477295e-01
-2.185188932344317436e-03
7.337529212236404419e-02
-1.274431347846984863e-01
-1.268940418958663940e-01
-8.412798494100570679e-02
8.903467096388339996e-03
-5.022262409329414368e-02
1.780748367309570312e-01
1.436685919761657715e-01
-1.244234964251518250e-01
-1.286489963531494141e-01
-1.143994033336639404e-01
-4.646964743733406067e-02
-1.742059439420700073e-01
-2.808679640293121338e-01
3.693300485610961914e-02
2.213758081197738647e-01
-8.635137230157852173e-02
-1.360522210597991943e-01
1.015048399567604065e-01
-8.088172227144241333e-02
-1.464473903179168701e-01
1.583370715379714966e-01
1.507304608821868896e-01
5.521412473171949387e-03
-9.606913663446903229e-03
2.534901499748229980e-01
-1.020570471882820129e-01
-7.217913120985031128e-02
4.114316776394844055e-02
6.615105271339416504e-02
5.621432140469551086e-02
-3.601899952627718449e-04
-7.426781952381134033e-02
-6.545346230268478394e-02
-6.489676237106323242e-02
-9.981800615787506104e-02
9.866970777511596680e-02
8.447816967964172363e-02
2.570717222988605499e-02
3.387868171557784081e-03
-1.143684983253479004e-01
-8.739357814192771912e-03
-2.375845238566398621e-02
4.144823923707008362e-02
5.044006183743476868e-02
-9.366212785243988037e-02
-4.463507607579231262e-02
7.586650550365447998e-02
-1.821120269596576691e-02
1.131906360387802124e-01
2.325680805370211601e-03
1.271106004714965820e-01
1.010472550988197327e-01
4.819142445921897888e-02
1.407038420438766479e-02
4.299572482705116272e-02
6.687657535076141357e-02
-2.162279933691024780e-02
-8.975303173065185547e-02
3.907682001590728760e-02
-3.527926653623580933e-02
-5.248929187655448914e-02
-1.783286221325397491e-02
6.260623782873153687e-02
3.137707337737083435e-02
-6.879283487796783447e-02
4.458303749561309814e-02
7.192219793796539307e-02
-7.511378079652786255e-02
4.839341714978218079e-02
-3.813450038433074951e-02
6.075078248977661133e-02
6.328189373016357422e-02
5.611741915345191956e-02
-5.963546037673950195e-02
-1.556350942701101303e-02
1.294191926717758179e-01
8.763574808835983276e-02
5.928700044751167297e-02
7.852874114178121090e-04
2.586535178124904633e-02
9.065405465662479401e-03
-7.445018738508224487e-02
7.507577538490295410e-02
-1.879166439175605774e-02
-5.819311738014221191e-02
2.949854917824268341e-02
7.629239559173583984e-02
4.852163046598434448e-02
1.093531399965286255e-02
5.605647712945938110e-02
5.809691175818443298e-02
6.166897341609001160e-02
6.128125265240669250e-02
-8.501935005187988281e-02
4.722593352198600769e-02
3.564389050006866455e-02
2.042689733207225800e-02
-7.353539764881134033e-02
1.347912102937698364e-02
1.702060177922248840e-02
6.433775275945663452e-02
-5.576329305768013000e-02
9.569600224494934082e-02
6.416556984186172485e-02
-9.330144524574279785e-02
9.880122542381286621e-02
1.239675935357809067e-02
-4.037546366453170776e-02
3.454333054833114147e-04
1.070688362233340740e-03
1.721376436762511730e-03
7.550510019063949585e-02
7.997187972068786621e-02
2.222829684615135193e-02
3.472097590565681458e-02
4.449107125401496887e-02
-3.266953164711594582e-03
4.705758765339851379e-03
1.884474791586399078e-02
-7.267592847347259521e-02
-4.408171400427818298e-02
6.893263198435306549e-03
3.412080556154251099e-02
-3.471084311604499817e-02
-1.586499437689781189e-02
4.025655798614025116e-03
1.302835810929536819e-02
-5.943265929818153381e-02
-1.250186860561370850e-01
-3.617899492383003235e-02
-9.731879085302352905e-02
-9.363200515508651733e-03
-2.370737493038177490e-02
-4.201630875468254089e-02
1.130246967077255249e-01
2.733717113733291626e-02
-3.192921401932835579e-03
9.848067909479141235e-02
2.543895319104194641e-02
-4.373632371425628662e-02
1.077216211706399918e-02
-6.816349178552627563e-02
-2.266835980117321014e-02
-2.924085222184658051e-02
9.549462236464023590e-03
-2.171796411275863647e-01
1.817252114415168762e-02
1.525181978940963745e-01
-1.344240903854370117e-01
-1.658890545368194580e-01
-9.105706959962844849e-02
4.991196095943450928e-03
4.447504878044128418e-02
1.250089854001998901e-01
6.198573112487792969e-02
-3.636230900883674622e-02
5.320253316313028336e-03
3.219253122806549072e-01
3.572377562522888184e-02
-1.618800610303878784e-01
2.249228507280349731e-01
-1.538247466087341309e-01
-2.055964916944503784e-01
-2.930409610271453857e-01
1.538084447383880615e-01
-2.990935742855072021e-01
-3.618735447525978088e-02
2.978980541229248047e-01
-4.776379838585853577e-02
-8.636261336505413055e-03
2.299008332192897797e-02
5.612546950578689575e-02
6.345194578170776367e-02
-3.726236056536436081e-03
-1.037093549966812134e-01
-7.134099304676055908e-02
9.175474755465984344e-03
3.078225441277027130e-02
-7.810371369123458862e-02
3.607404232025146484e-02
-5.902159586548805237e-02
-1.084591597318649292e-01
4.691932350397109985e-02
7.975731790065765381e-02
-2.886002697050571442e-02
1.502531114965677261e-02
5.249973759055137634e-02
6.039894744753837585e-02
4.238144680857658386e-02
6.753242760896682739e-02
5.606339126825332642e-02
2.139547467231750488e-02
-1.433049235492944717e-02
-4.608051851391792297e-03
5.219366401433944702e-02
2.878128923475742340e-02
6.807526201009750366e-02
5.458359047770500183e-02
9.515715390443801880e-02
4.759334400296211243e-02
-7.925491034984588623e-02
-5.312373861670494080e-02
-2.831921167671680450e-02
5.327548086643218994e-02
1.056457757949829102e-01
-2.607408165931701660e-02
-1.826570369303226471e-02
-5.715170502662658691e-02
-1.297220736742019653e-01
-7.304972410202026367e-02
-1.766131026670336723e-03
5.279597640037536621e-02
6.813399493694305420e-02
1.299553960561752319e-01
-1.281185597181320190e-01
9.497933834791183472e-02
8.343660831451416016e-02
6.794840842485427856e-02
-1.813300885260105133e-02
-5.904964730143547058e-02
-1.194342132657766342e-02
-1.945508420467376709e-01
-2.979360222816467285e-01
-1.605725139379501343e-01
1.491539329290390015e-01
5.775825679302215576e-02
1.529818922281265259e-01
7.815086841583251953e-02
2.462359145283699036e-02
4.898744169622659683e-03
9.059087187051773071e-02
7.530858274549245834e-03
-3.034780733287334442e-02
-8.616774529218673706e-02
-7.500530779361724854e-02
2.151206322014331818e-02
9.120338596403598785e-03
-6.275469064712524414e-02
5.334865301847457886e-02
7.716576009988784790e-02
-3.657565265893936157e-02
-5.233839899301528931e-02
7.130472455173730850e-03
1.872697100043296814e-02
1.530756335705518723e-02
-4.986558109521865845e-02
2.672601863741874695e-02
-7.431990467011928558e-03
5.307339131832122803e-02
-5.131068825721740723e-02
-1.105472147464752197e-01
-8.476093411445617676e-02
4.272812977433204651e-02
5.788056645542383194e-03
-1.485686749219894409e-02
-1.278323382139205933e-01
-1.341080814599990845e-01
1.923101767897605896e-02
-6.802882999181747437e-02
6.919432431459426880e-02
-2.860382013022899628e-02
8.587028086185455322e-02
-7.395102828741073608e-02
-8.482651412487030029e-02
-1.935959677211940289e-03
1.685380190610885620e-02
-4.314350336790084839e-02
3.547937012626789510e-05
-1.197366714477539062e-01
-2.041743546724319458e-01
-1.135169118642807007e-01
-9.518262743949890137e-02
-2.506862282752990723e-01
1.115582659840583801e-01
1.733581423759460449e-01
-1.856120377779006958e-01
-2.160651087760925293e-01
-9.084394201636314392e-03
-1.171998903155326843e-01
-3.539279475808143616e-02
1.680648028850555420e-01
1.594536900520324707e-01
-8.039516955614089966e-02
-1.437413692474365234e-01
1.017001867294311523e-01
-8.201433718204498291e-02
-1.529526263475418091e-01
1.484055221080780029e-01
7.765278965234756470e-02
1.441904809325933456e-02
-7.049971818923950195e-02
4.929079487919807434e-02
7.397723197937011719e-02
3.968878183513879776e-03
-2.984612621366977692e-02
1.268147826194763184e-01
1.020260080695152283e-01
-1.630901172757148743e-02
-4.259062558412551880e-02
1.025390438735485077e-02
-2.952571585774421692e-02
-6.827159970998764038e-02
2.455219067633152008e-02
-1.467544306069612503e-02
-1.609610579907894135e-02
6.944985687732696533e-02
5.798770114779472351e-02
-6.030887737870216370e-02
-4.324240982532501221e-02
9.901686571538448334e-03
1.714265160262584686e-02
1.280014067888259888e-01
-2.413185499608516693e-02
1.098466198891401291e-02
1.161503838375210762e-03
1.250156760215759277e-02
-2.931127697229385376e-02
-3.124248795211315155e-02
-1.811011321842670441e-02
-2.859660424292087555e-02
3.388156648725271225e-03
4.414676874876022339e-02
6.733145564794540405e-02
4.724102839827537537e-02
-5.550353601574897766e-02
-5.032804608345031738e-02
-8.694489300251007080e-02
4.049359261989593506e-02
8.372364193201065063e-02
-2.117015188559889793e-03
2.273529767990112305e-02
-6.574131548404693604e-02
3.759501501917839050e-02
5.215202644467353821e-02
-4.436033219099044800e-02
-3.789404034614562988e-02
1.180169056169688702e-04
-5.454340949654579163e-03
-7.719068229198455811e-02
6.770095974206924438e-02
-3.961896989494562149e-03
-9.087846428155899048e-02
-5.714411661028862000e-02
-6.945198774337768555e-02
6.958054751157760620e-02
5.872049182653427124e-02
3.022537194192409515e-02
9.251596406102180481e-03
20 20
1.416931450366973877e-01
3.189734220504760742e-01
2.143695354461669922e-01
-1.722448170185089111e-01
-2.964567542076110840e-01
2.394492775201797485e-01
3.285126686096191406e-01
2.196655124425888062e-01
-5.548959970474243164e-01
2.731090784072875977e-01
-2.689574956893920898e-01
2.273811101913452148e-01
3.733936250209808350e-01
-3.388047516345977783e-01
-2.104954570531845093e-01
-1.935436278581619263e-01
3.404370546340942383e-01
5.120488405227661133e-01
-1.894322186708450317e-01
1.399975270032882690e-01
2.343486547470092773e-01
1.161633804440498352e-01
1.958900690078735352e-01
-2.506863772869110107e-01
-2.706720530986785889e-01
1.168732196092605591e-01
2.176357805728912354e-01
1.352940350770950317e-01
-2.666947245597839355e-01
2.440672665834426880e-01
-1.228033453226089478e-01
1.924507468938827515e-01
1.883268505334854126e-01
-1.409289985895156860e-01
-1.485403776168823242e-01
-3.322769999504089355e-01
1.023054569959640503e-01
1.246027201414108276e-01
-3.414524197578430176e-01
1.710274517536163330e-01
8.501045405864715576e-02
2.526237368583679199e-01
2.635848820209503174e-01
-2.153952270746231079e-01
-3.339878320693969727e-01
1.916898787021636963e-01
3.178663849830627441e-01
-9.904371947050094604e-02
1.249153986573219299e-01
5.244607925415039062e-01
-2.353091090917587280e-01
2.318475842475891113e-01
1.056622415781021118e-01
-2.015826851129531860e-01
-2.846862673759460449e-01
-2.968888580799102783e-01
1.508863270282745361e-01
3.638192713260650635e-01
-7.767806947231292725e-02
-2.380589023232460022e-02
-5.693186447024345398e-02
7.446393370628356934e-02
2.361513823270797729e-01
-7.402730733156204224e-02
-1.499147564172744751e-01
3.159344568848609924e-02
2.135749310255050659e-01
1.129287406802177429e-01
-1.383565962314605713e-01
6.926351785659790039e-02
-6.311809271574020386e-02
9.351670742034912109e-02
9.847838431596755981e-02
-3.066749125719070435e-02
-1.747417151927947998e-01
-1.168935969471931458e-01
1.411393005400896072e-02
1.117329224944114685e-01
-1.143316254019737244e-01
1.699000447988510132e-01
-1.802364885807037354e-01
4.473257660865783691e-01
3.141136169433593750e-01
-4.127231538295745850e-01
-3.608958721160888672e-01
5.359467864036560059e-01
3.710557222366333008e-01
5.389975309371948242e-01
-1.952995955944061279e-01
1.906098425388336182e-01
-3.730959594249725342e-01
3.060370683670043945e-01
4.460272490978240967e-01
-3.854313492774963379e-01
-3.249373435974121094e-01
-3.870191276073455811e-01
3.846041560173034668e-01
4.534645006060600281e-02
-2.598527371883392334e-01
3.986782729625701904e-01
-5.677065849304199219e-01
-6.076696887612342834e-02
7.151018083095550537e-02
9.667636454105377197e-02
-2.910987101495265961e-02
3.560379520058631897e-02
-1.119703613221645355e-02
-8.663156069815158844e-03
3.073585033416748047e-01
-1.776581257581710815e-01
2.624484524130821228e-02
-4.703588783740997314e-02
-1.134379953145980835e-01
1.565545499324798584e-01
-3.886627778410911560e-02
4.957931116223335266e-02
-8.156828582286834717e-02
-1.702985167503356934e-01
3.477355837821960449e-02
2.756688371300697327e-02
2.650057673454284668e-01
-3.843626379966735840e-01
-2.326685488224029541e-01
3.453229963779449463e-01
1.920162588357925415e-01
-3.372149467468261719e-01
-3.812496066093444824e-01
-3.053519129753112793e-01
1.629312932491302490e-01
-3.552182316780090332e-01
2.301041930913925171e-01
-3.363161385059356689e-01
-4.144285023212432861e-01
3.744656443595886230e-01
2.792887985706329346e-01
2.697775959968566895e-01
-4.297090172767639160e-01
-1.798843890428543091e-01
3.271121978759765625e-01
-2.167036831378936768e-01
-1.071777120232582092e-01
9.686338901519775391e-02
1.449010670185089111e-01
-2.542152404785156250e-01
-1.196509152650833130e-01
7.564171403646469116e-02
2.072915881872177124e-01
6.491200067102909088e-03
-1.105591729283332825e-01
1.282632052898406982e-01
-8.281672745943069458e-02
9.864574670791625977e-02
1.576173752546310425e-01
-1.031979620456695557e-01
-9.262394160032272339e-02
-1.641389280557632446e-01
1.258396506309509277e-01
1.578680127859115601e-01
-1.460744142532348633e-01
1.388097703456878662e-01
-7.102929055690765381e-02
3.142306208610534668e-01
2.554812133312225342e-01
-2.647943496704101562e-01
-3.392888903617858887e-01
2.311113029718399048e-01
3.028160035610198975e-01
5.791860818862915039e-01
-2.350141257047653198e-01
1.884952932596206665e-01
-2.422381937503814697e-01
3.101180195808410645e-01
2.899773418903350830e-01
-3.755211234092712402e-01
-2.523102462291717529e-01
-2.603222727775573730e-01
2.387261837720870972e-01
2.805066704750061035e-01
-2.506602406501770020e-01
3.104335367679595947e-01
1.589858680963516235e-01
-2.111775726079940796e-01
-3.853726759552955627e-02
2.752490900456905365e-02
2.329350858926773071e-01
-1.209204494953155518e-01
-2.080539762973785400e-01
6.514801830053329468e-02
1.006027609109878540e-01
-1.631321161985397339e-01
2.403848767280578613e-01
-6.402122229337692261e-02
-8.390295505523681641e-02
1.531228721141815186e-01
8.000865578651428223e-02
2.662506997585296631e-01
-1.225029453635215759e-01
-8.625923097133636475e-02
2.001157253980636597e-01
-2.670584246516227722e-02
-4.251366108655929565e-02
9.114512801170349121e-02
-1.191219780594110489e-02
5.324344336986541748e-02
-7.559100538492202759e-02
4.181393608450889587e-02
-2.532574720680713654e-02
1.704191565513610840e-01
6.252903491258621216e-02
1.926872506737709045e-02
-3.368712961673736572e-03
5.558608099818229675e-02
-9.446240961551666260e-03
-1.546670775860548019e-02
-7.604127377271652222e-02
-4.239694401621818542e-02
-6.653985381126403809e-02
-4.722752794623374939e-02
-3.600814193487167358e-02
1.485493481159210205e-01
-2.568949460983276367e-01
1.366538852453231812e-01
1.323833614587783813e-01
-1.062638983130455017e-01
-1.331067383289337158e-01
6.021315976977348328e-02
1.978049576282501221e-01
-2.216152101755142212e-01
-5.219331383705139160e-01
1.334898173809051514e-01
4.750661551952362061e-02
6.589586287736892700e-02
2.744748890399932861e-01
-8.413675427436828613e-02
8.339656889438629150e-02
-2.502292692661285400e-01
-6.310474593192338943e-03
4.345340728759765625e-01
7.510481774806976318e-02
-1.076701134443283081e-01
7.072083186358213425e-03
-3.624853789806365967e-01
-3.487712144851684570e-01
3.468019068241119385e-01
4.282473921775817871e-01
-3.825379312038421631e-01
-4.106057882308959961e-01
6.877388805150985718e-02
3.783622682094573975e-01
-4.365644156932830811e-01
2.904218137264251709e-01
-3.522921204566955566e-01
-4.104201197624206543e-01
3.674015104770660400e-01
3.857980966567993164e-01
4.090573787689208984e-01
-3.727882504463195801e-01
-4.121878147125244141e-01
1.879551857709884644e-01
-2.270287573337554932e-01
1.368341445922851562e-01
-1.785677671432495117e-01
-1.795926541090011597e-01
9.911637008190155029e-02
1.570174545049667358e-01
-1.208765134215354919e-01
-8.987980335950851440e-02
-1.889148354530334473e-01
1.886469125747680664e-01
-1.823281645774841309e-01
1.889198869466781616e-01
-1.671693623065948486e-01
-1.954963058233261108e-02
1.783585995435714722e-01
1.459333896636962891e-01
1.266700178384780884e-01
-1.098973974585533142e-01
-2.140976041555404663e-01
2.636579573154449463e-01
-1.531955152750015259e-01
9.172353744506835938e-01
2.310080081224441528e-02
-2.122315950691699982e-02
3.841975331306457520e-02
4.071991145610809326e-02
-1.059366315603256226e-01
-5.522852391004562378e-02
2.067305445671081543e-01
-2.385961115360260010e-01
8.053290843963623047e-02
6.013449281454086304e-02
-3.848151117563247681e-02
-5.220653489232063293e-02
-6.137081235647201538e-02
-6.902607530355453491e-02
-4.872598871588706970e-02
-6.460026837885379791e-03
1.986882984638214111e-01
-8.908230066299438477e-02
-2.635402977466583252e-02
4.635724723339080811e-01
5.849079415202140808e-02
1.321931183338165283e-01
-1.337850987911224365e-01
-7.288973033428192139e-02
8.067684620618820190e-02
9.189454466104507446e-02
1.148210614919662476e-01
-2.320022433996200562e-01
7.668688148260116577e-02
-1.852911263704299927e-01
9.896330535411834717e-02
1.318051367998123169e-01
-2.667040005326271057e-02
-1.162193417549133301e-01
4.849422350525856018e-02
-6.124467402696609497e-02
1.686746627092361450e-01
-1.921002119779586792e-01
1.891932487487792969e-01
-3.226315379142761230e-01
-3.095245957374572754e-01
-2.707567811012268066e-01
3.060477972030639648e-01
3.503596186637878418e-01
-2.481489181518554688e-01
-3.574749827384948730e-01
-2.825843691825866699e-01
5.329901576042175293e-01
-2.518263459205627441e-01
2.575115561485290527e-01
-3.396256864070892334e-01
-4.763109982013702393e-01
3.108276426792144775e-01
2.747170925140380859e-01
3.781131207942962646e-01
-2.977019548416137695e-01
-4.612007439136505127e-01
4.251056611537933350e-01
-3.755674362182617188e-01
-2.125008851289749146e-01
3.153308928012847900e-01
2.078139483928680420e-01
-2.753499150276184082e-01
-3.002903163433074951e-01
2.269200384616851807e-01
3.493451476097106934e-01
4.854634031653404236e-02
-1.551879495382308960e-01
4.107119441032409668e-01
-2.756484746932983398e-01
1.540946364402770996e-01
2.314805388450622559e-01
-2.986851334571838379e-01
-1.419015377759933472e-01
-3.091053962707519531e-01
1.250008046627044678e-01
3.307281434535980225e-01
-2.362046688795089722e-01
2.079741954803466797e-01
-1.200934872031211853e-01
1.913305670022964478e-01
3.608481213450431824e-02
-6.963610649108886719e-02
-1.651290059089660645e-01
2.111064493656158447e-01
2.064943015575408936e-01
4.812645912170410156e-02
-1.103245764970779419e-01
1.279258579015731812e-01
-1.807232946157455444e-01
8.627770841121673584e-02
1.787446439266204834e-01
-1.763366460800170898e-01
-4.112471267580986023e-02
-2.542319297790527344e-01
4.071969166398048401e-02
6.665360927581787109e-02
-1.627316027879714966e-01
1.175670996308326721e-01
-1.984108705073595047e-03
-2.258740663528442383e-01
-2.690849602222442627e-01
2.744753658771514893e-01
2.276077270507812500e-01
-3.022150993347167969e-01
-2.981872260570526123e-01
4.446955025196075439e-02
1.974821835756301880e-01
-3.311778306961059570e-01
3.014446496963500977e-01
-2.108236253261566162e-01
-1.120475828647613525e-01
3.047785162925720215e-01
1.517672389745712280e-01
2.540543079376220703e-01
-1.267243176698684692e-01
-2.479312568902969360e-01
3.375256955623626709e-01
-2.433029711246490479e-01
20 20
8.536040782928466797e-02
-2.174594849348068237e-01
-5.511190891265869141e-01
-2.357609421014785767e-01
1.016057655215263367e-01
-2.605352699756622314e-01
-2.055536657571792603e-01
-1.582722514867782593e-01
-2.942843362689018250e-02
3.882897198200225830e-01
-4.224623143672943115e-01
-5.902655124664306641e-01
-7.288648188114166260e-02
-5.718082189559936523e-01
1.214213669300079346e-01
6.612095981836318970e-02
4.295041039586067200e-02
-1.350083500146865845e-01
-1.380719393491744995e-01
-1.350329667329788208e-01
-3.255835473537445068e-01
6.602740287780761719e-01
-1.027017757296562195e-01
1.751630008220672607e-01
-3.547786772251129150e-01
1.210242137312889099e-01
5.996276736259460449e-01
4.978209435939788818e-01
-2.278892844915390015e-01
-1.793456375598907471e-01
1.526973396539688110e-01
-2.015293836593627930e-01
1.509936004877090454e-01
-5.031770560890436172e-03
1.768553555011749268e-01
-1.674079000949859619e-01
-1.850239485502243042e-01
1.517416834831237793e-01
-1.778364032506942749e-01
-2.300662547349929810e-01
-2.094295173883438110e-01
5.718498826026916504e-01
-2.305770218372344971e-01
7.151826471090316772e-02
-2.705697119235992432e-01
2.040756344795227051e-01
3.969297409057617188e-01
3.290315866470336914e-01
-2.574062645435333252e-01
-2.257712781429290771e-01
2.087012082338333130e-01
-8.428518474102020264e-02
1.027899459004402161e-01
-1.178881153464317322e-01
2.603540420532226562e-01
-1.291940063238143921e-01
-1.935970932245254517e-01
1.491334289312362671e-01
-1.602963805198669434e-01
-1.046020016074180603e-01
2.196480780839920044e-01
-5.518316030502319336e-01
1.015918552875518799e-01
-2.118884325027465820e-01
2.078517079353332520e-01
-1.023620441555976868e-01
-4.599041044712066650e-01
-4.459200799465179443e-01
1.879363059997558594e-01
2.414575964212417603e-01
-2.195929884910583496e-01
1.707231104373931885e-01
-1.190010905265808105e-01
1.534054130315780640e-01
-1.633967906236648560e-01
6.376758217811584473e-02
1.740508973598480225e-01
-1.952421218156814575e-01
7.216036319732666016e-03
2.350442558526992798e-01
2.270136922597885132e-01
-5.794883370399475098e-01
1.982062160968780518e-01
-1.338919997215270996e-01
2.547612190246582031e-01
-7.419501990079879761e-02
-4.451420307159423828e-01
-4.306877553462982178e-01
3.618800342082977295e-01
2.915408015251159668e-01
-1.918376088142395020e-01
1.609100401401519775e-01
-1.356522887945175171e-01
1.761738657951354980e-01
-2.591187655925750732e-01
1.602025181055068970e-01
2.416450828313827515e-01
-1.723374277353286743e-01
6.664337217807769775e-02
1.583587974309921265e-01
-2.739144563674926758e-01
6.596481800079345703e-01
-3.699342906475067139e-02
8.942053467035293579e-02
-2.384169250726699829e-01
6.308212131261825562e-02
5.517582297325134277e-01
5.309129953384399414e-01
-2.431516498327255249e-01
-2.134723365306854248e-01
1.959405392408370972e-01
-8.052965253591537476e-02
1.120826750993728638e-01
-8.264973014593124390e-02
2.343128472566604614e-01
-8.901812881231307983e-02
-2.116269618272781372e-01
2.106302678585052490e-01
-1.121415942907333374e-01
-1.425140500068664551e-01
-2.155273407697677612e-01
5.877153277397155762e-01
-1.125593297183513641e-02
1.333016902208328247e-01
-2.532105743885040283e-01
4.582460224628448486e-02
4.663487970829010010e-01
3.903073370456695557e-01
-3.207330107688903809e-01
-2.326777726411819458e-01
1.393731981515884399e-01
-7.386179268360137939e-02
9.223777800798416138e-02
-6.321167945861816406e-02
1.946550905704498291e-01
-2.096817344427108765e-01
-2.844319045543670654e-01
1.131252646446228027e-01
-2.392610907554626465e-01
-2.024682313203811646e-01
-1.206843852996826172e-01
2.018884718418121338e-01
-1.891313344240188599e-01
5.339990854263305664e-01
-4.404184222221374512e-02
1.035131812095642090e+00
2.331607788801193237e-01
2.110826820135116577e-01
-5.756311118602752686e-02
-5.561797022819519043e-01
5.013238191604614258e-01
-2.082318067550659180e-01
1.494765728712081909e-01
-2.159212678670883179e-01
3.941887989640235901e-02
-7.976882904767990112e-02
-1.093773543834686279e-01
5.285984873771667480e-01
-8.521589636802673340e-02
-2.617356739938259125e-02
3.709915578365325928e-01
-4.476641416549682617e-01
2.081103473901748657e-01
-1.646499633789062500e-01
4.116282463073730469e-01
-2.639223821461200714e-02
-3.496521115303039551e-01
-3.311979472637176514e-01
2.904894053936004639e-01
2.121601402759552002e-01
-2.977516055107116699e-01
1.834515035152435303e-01
-1.306703835725784302e-01
2.558950185775756836e-01
-2.238981574773788452e-01
1.341333389282226562e-01
1.061297655105590820e-01
-1.765073388814926147e-01
1.957503855228424072e-01
3.076021969318389893e-01
-2.462304085493087769e-01
6.241080164909362793e-01
-1.215766295790672302e-01
1.255500465631484985e-01
-2.913500666618347168e-01
-1.983981783268973231e-04
4.669144153594970703e-01
4.787786602973937988e-01
-2.097598761320114136e-01
-1.681635528802871704e-01
2.109542042016983032e-01
-8.394538611173629761e-02
1.691920310258865356e-01
-1.742258518934249878e-01
1.830934435129165649e-01
-1.699507236480712891e-01
-2.643955349922180176e-01
2.142107188701629639e-01
-1.897226721048355103e-01
-1.897742450237274170e-01
2.854908704757690430e-01
-5.856775641441345215e-01
9.571397304534912109e-02
-1.196751222014427185e-01
2.700506746768951416e-01
-2.877105213701725006e-02
-4.534875154495239258e-01
-3.250219821929931641e-01
3.790418803691864014e-01
1.532247662544250488e-01
-2.580709755420684814e-01
2.122169286012649536e-01
-1.711569577455520630e-01
1.558829694986343384e-01
-3.030735254287719727e-01
1.601039618253707886e-01
9.564922004938125610e-02
-2.500648796558380127e-01
2.407451570034027100e-01
1.340953856706619263e-01
-1.715013086795806885e-01
5.742573142051696777e-01
-5.545002594590187073e-02
1.306272149085998535e-01
-2.479843646287918091e-01
2.574261128902435303e-01
4.525593221187591553e-01
4.204329848289489746e-01
-2.608131468296051025e-01
-1.744501888751983643e-01
2.219236195087432861e-01
-1.699493080377578735e-01
3.583563119173049927e-02
-1.592002362012863159e-01
1.384812593460083008e-01
-5.577706173062324524e-02
-2.149674296379089355e-01
1.840230822563171387e-01
-2.088848054409027100e-01
-2.756772041320800781e-01
-3.090768158435821533e-01
5.687440633773803711e-01
-3.251592069864273071e-02
9.122802317142486572e-02
-4.409306347370147705e-01
1.168667972087860107e-01
5.258671641349792480e-01
4.295940399169921875e-01
-1.633503139019012451e-01
-1.849702596664428711e-01
1.820006221532821655e-01
-7.993679493665695190e-02
-1.896060444414615631e-02
-8.017771691083908081e-02
1.794091910123825073e-01
1.229932382702827454e-01
-2.174098640680313110e-01
1.414255797863006592e-01
-3.659107163548469543e-02
-3.770852982997894287e-01
2.946896255016326904e-01
-6.431563496589660645e-01
1.331280618906021118e-01
-2.341273128986358643e-01
3.150052726268768311e-01
-1.446763128042221069e-01
-3.924866616725921631e-01
-4.272995293140411377e-01
3.396677672863006592e-01
2.387921363115310669e-01
-1.349648088216781616e-01
6.877463310956954956e-02
-1.829295754432678223e-01
1.553105115890502930e-01
-1.773667186498641968e-01
-6.689760833978652954e-02
1.981453001499176025e-01
-1.571806371212005615e-01
1.659888625144958496e-01
2.162040770053863525e-01
3.079803884029388428e-01
-4.183082878589630127e-01
1.416155844926834106e-01
-1.742725223302841187e-01
3.058744370937347412e-01
-1.676612496376037598e-01
-4.292813539505004883e-01
-4.369312226772308350e-01
1.180575862526893616e-01
1.989349871873855591e-01
-2.514773905277252197e-01
1.729443967342376709e-01
-1.108118668198585510e-01
8.056328445672988892e-02
-7.191889733076095581e-02
1.212793495506048203e-02
1.769389510154724121e-01
-1.389674097299575806e-01
1.732027381658554077e-01
1.654177457094192505e-01
2.291890233755111694e-01
-6.996808052062988281e-01
1.371557861566543579e-01
-1.069595962762832642e-01
2.153879702091217041e-01
-1.051208078861236572e-01
-5.299401879310607910e-01
-4.261342585086822510e-01
3.023124039173126221e-01
1.866301000118255615e-01
-1.746473610401153564e-01
6.782694160938262939e-02
-1.513949483633041382e-01
3.836502879858016968e-02
-2.193010896444320679e-01
1.444017291069030762e-01
8.450062572956085205e-02
-1.750233024358749390e-01
1.564174741506576538e-01
1.275000069290399551e-02
-3.047892451286315918e-01
7.012364268302917480e-01
-1.350701600313186646e-01
1.577274650335311890e-01
-3.782156109809875488e-01
3.245194628834724426e-02
6.927131414413452148e-01
4.788268804550170898e-01
-1.439413875341415405e-01
-9.707773476839065552e-02
1.483169645071029663e-01
-7.072720676660537720e-02
9.099679440259933472e-02
-3.369852900505065918e-02
4.932891950011253357e-02
-1.198567748069763184e-01
-3.523392081260681152e-01
2.006201893091201782e-01
-8.121339976787567139e-02
-1.933470070362091064e-01
-2.969042360782623291e-01
5.760438442230224609e-01
-1.534618735313415527e-01
9.682754427194595337e-02
-4.061910212039947510e-01
7.997620850801467896e-02
4.642846882343292236e-01
4.767937958240509033e-01
-2.646294832229614258e-01
-2.654234170913696289e-01
1.686623543500900269e-01
-1.460401862859725952e-01
8.588322252035140991e-02
-9.254842251539230347e-02
8.060150593519210815e-02
-5.894512310624122620e-02
-2.067942917346954346e-01
6.868792325258255005e-02
-9.064514189958572388e-02
-3.142066001892089844e-01
2.080086022615432739e-01
-4.711610376834869385e-01
1.911930590867996216e-01
-2.500236034393310547e-01
2.673251628875732422e-01
-2.028775066137313843e-01
-3.655562996864318848e-01
-2.817416787147521973e-01
2.968753874301910400e-01
2.500415444374084473e-01
-3.052457869052886963e-01
2.104913294315338135e-01
-2.088531553745269775e-01
2.963359653949737549e-01
-2.499779760837554932e-01
2.243341952562332153e-01
1.128137037158012390e-01
-2.573896348476409912e-01
3.187113702297210693e-01
1.122824568301439285e-02
-2.316869348287582397e-01
4.915010929107666016e-01
-2.501778304576873779e-01
1.827980577945709229e-01
-2.725728154182434082e-01
2.900631725788116455e-01
3.087363243103027344e-01
3.342629969120025635e-01
-2.143104970455169678e-01
-3.169094622135162354e-01
1.994939595460891724e-01
-1.980131715536117554e-01
1.062196865677833557e-01
-2.035700976848602295e-01
2.353483438491821289e-01
-1.348067969083786011e-01
-1.230558305978775024e-01
2.684079706668853760e-01
-1.734727621078491211e-01
-1.848962008953094482e-01
20 1
4.844782873988151550e-02
-1.969974637031555176e-01
-1.051605641841888428e-01
6.617915630340576172e-02
6.854051351547241211e-02
1.295457482337951660e-01
-1.362314075231552124e-01
-1.195341572165489197e-01
-6.723427772521972656e-02
-8.023624867200851440e-02
1.022319868206977844e-01
-1.139515340328216553e-01
9.122371673583984375e-03
-1.222596466541290283e-01
1.015963479876518250e-01
-3.498353436589241028e-02
2.626500278711318970e-02
9.089797735214233398e-02
-8.919039368629455566e-02
5.026905238628387451e-02
20
-1.970895290374755859e+00
-1.910263299942016602e+00
-1.843559384346008301e+00
-1.461166620254516602e+00
-1.933177471160888672e+00
-1.986865043640136719e+00
-1.890820503234863281e+00
-1.955022931098937988e+00
-1.942538619041442871e+00
-1.750741362571716309e+00
-1.856386780738830566e+00
-1.997913122177124023e+00
-1.927295565605163574e+00
-1.745673060417175293e+00
-1.916306138038635254e+00
-1.825553297996520996e+00
-1.495280623435974121e+00
-1.973433613777160645e+00
-1.954023003578186035e+00
-1.892266750335693359e+00
20
-4.652130231261253357e-02
-1.572502590715885162e-02
-7.002785801887512207e-03
-4.113354533910751343e-02
-3.894957900047302246e-02
-1.807802822440862656e-03
3.927063941955566406e-02
-2.587147615849971771e-02
-3.535369038581848145e-02
-1.372194528812542558e-04
-1.661587855778634548e-03
-2.132116258144378662e-02
4.207215085625648499e-02
4.988955333828926086e-02
-3.223167359828948975e-02
-1.809185184538364410e-02
3.850533440709114075e-02
-3.188734874129295349e-02
-3.227961435914039612e-02
2.847287245094776154e-02
20
-1.794800162315368652e-01
-2.127703465521335602e-02
5.588846746832132339e-03
1.730015873908996582e-02
9.468187578022480011e-03
-9.855343960225582123e-03
-1.867588236927986145e-02
-1.000571623444557190e-02
6.037075445055961609e-02
-1.236919779330492020e-02
1.136550121009349823e-02
-1.386039424687623978e-02
-8.618107996881008148e-03
1.521827653050422668e-02
-5.557838012464344501e-04
5.222938023507595062e-03
-6.702821236103773117e-03
-3.337614610791206360e-02
2.088716812431812286e-02
-2.131956443190574646e-02
20
-1.091850735247135162e-02
-2.744491025805473328e-02
1.287066042423248291e-01
-2.030794881284236908e-02
-1.803744956851005554e-02
-1.452910900115966797e-01
-9.874828392639756203e-04
3.591036074794828892e-04
3.981265425682067871e-02
-1.204848941415548325e-02
-4.959927406162023544e-03
1.344572156667709351e-01
3.125712648034095764e-02
1.236322373151779175e-01
-1.217955909669399261e-02
-2.341014565899968147e-03
-2.373038791120052338e-03
-1.305344328284263611e-02
2.109715901315212250e-02
-9.300102293491363525e-02
1
4.521440342068672180e-02
