8
2 100
-3.181642293930053711e-01
5.329582691192626953e-01
-6.256067752838134766e-01
-3.644568920135498047e-01
-6.053401827812194824e-01
-2.087794989347457886e-01
1.000166013836860657e-01
2.262953110039234161e-02
-6.036724448204040527e-01
-5.884905457496643066e-01
-8.502748012542724609e-01
4.352882131934165955e-02
-1.307565212249755859e+00
1.167756319046020508e+00
1.431030511856079102e+00
2.123520709574222565e-02
-1.270540475845336914e+00
1.960395216941833496e+00
1.349844783544540405e-01
1.215859726071357727e-01
4.689922034740447998e-01
7.814099788665771484e-01
-4.069286882877349854e-01
-1.225441336631774902e+00
-7.267341762781143188e-02
-1.022026062011718750e+00
-6.662102937698364258e-01
8.309101462364196777e-01
2.308055162429809570e-01
3.346006572246551514e-01
-1.215766668319702148e+00
-2.359443753957748413e-01
-6.136807054281234741e-02
-1.542935371398925781e+00
-4.057670533657073975e-01
-2.287923097610473633e-01
-1.849468611180782318e-02
5.562480092048645020e-01
-6.932908296585083008e-01
1.607437849044799805e+00
7.672538757324218750e-01
-5.180204510688781738e-01
-5.231240391731262207e-02
5.883103013038635254e-01
-1.282556056976318359e+00
1.122206926345825195e+00
-4.408113360404968262e-01
-5.930842757225036621e-01
-2.118757367134094238e-02
1.794252753257751465e+00
-1.380106925964355469e+00
-1.537288904190063477e+00
-1.691801071166992188e+00
7.848261594772338867e-01
-7.738019824028015137e-01
-3.312123119831085205e-01
1.293687582015991211e+00
-8.939589560031890869e-02
-2.080865383148193359e+00
3.426507115364074707e-01
1.562254190444946289e+00
3.457338809967041016e-01
-1.243911385536193848e+00
5.807285308837890625e-01
4.900611937046051025e-01
-5.438970327377319336e-01
3.519546389579772949e-01
1.110443830490112305e+00
7.722384929656982422e-01
2.331891298294067383e+00
8.715670704841613770e-01
4.844499826431274414e-01
1.722717165946960449e+00
7.198709249496459961e-01
-8.351129293441772461e-01
3.554247617721557617e-01
2.506081163883209229e-01
-1.339974284172058105e+00
1.732865124940872192e-01
-8.820993900299072266e-01
-1.650252044200897217e-01
-1.096508428454399109e-01
-2.512838542461395264e-01
7.426494956016540527e-01
-6.425075531005859375e-01
-2.087646722793579102e+00
-1.811459422111511230e+00
-1.511999130249023438e+00
-1.160501718521118164e+00
2.345495223999023438e+00
-1.199230551719665527e-01
-5.281621217727661133e-02
6.810393333435058594e-01
-9.653990268707275391e-01
-5.190637707710266113e-01
5.345932245254516602e-01
5.751019716262817383e-01
2.417710423469543457e-01
9.322766661643981934e-01
1.154630422592163086e+00
-3.239933013916015625e+00
3.454555273056030273e-01
1.306184172630310059e+00
-1.343409061431884766e+00
-6.595690846443176270e-01
-2.242173403501510620e-01
7.918485403060913086e-01
1.348063826560974121e+00
-1.265112757682800293e-01
1.040813326835632324e+00
2.937741577625274658e-01
-1.101911664009094238e+00
4.079080820083618164e-01
1.155031442642211914e+00
5.820517539978027344e-01
1.533274173736572266e+00
-1.407509803771972656e+00
3.725226223468780518e-01
1.128015279769897461e+00
5.741686224937438965e-01
-1.520286917686462402e+00
-8.292202353477478027e-01
8.800094723701477051e-01
1.520951241254806519e-01
1.347538232803344727e+00
8.031924962997436523e-01
3.792831674218177795e-02
-2.047983884811401367e+00
5.300508737564086914e-01
1.174398586153984070e-01
-1.726101636886596680e+00
4.979747235774993896e-01
1.738550662994384766e+00
-1.696075350046157837e-01
-1.018290400505065918e+00
1.301828861236572266e+00
-5.726831555366516113e-01
-7.298500090837478638e-02
-3.847988247871398926e-01
-5.791449546813964844e-01
4.652826488018035889e-01
8.405331373214721680e-01
-2.089672088623046875e-01
-2.103818766772747040e-02
-8.948786258697509766e-01
-1.638806939125061035e+00
-1.743337035179138184e+00
1.000671014189720154e-01
6.796809434890747070e-01
1.835661292076110840e+00
-2.350536584854125977e+00
3.054194152355194092e-01
-2.005638927221298218e-01
-4.353638291358947754e-01
2.337526977062225342e-01
1.230821385979652405e-01
-9.690384268760681152e-01
-2.065849900245666504e-01
5.825780034065246582e-01
-1.256915569305419922e+00
1.055635884404182434e-02
-1.079321146011352539e+00
8.966444134712219238e-01
-5.215101838111877441e-01
1.867210030555725098e+00
-3.457460999488830566e-01
-1.920415878295898438e+00
1.834084391593933105e-01
3.227234482765197754e-01
-3.629924058914184570e-01
-1.172632575035095215e-01
1.065985634922981262e-01
-5.859277844429016113e-01
-1.127969741821289062e+00
4.264778792858123779e-01
-3.606128394603729248e-01
1.952826678752899170e-01
6.769577264785766602e-01
-8.278973698616027832e-01
-5.504763126373291016e-01
2.208023786544799805e+00
3.857770562171936035e-01
-5.951102972030639648e-01
-1.506098151206970215e+00
7.485009431838989258e-01
-1.899747252464294434e-01
1.743500709533691406e+00
9.684152603149414062e-01
-8.949729800224304199e-01
-1.174704790115356445e+00
6.209258437156677246e-01
1.691821455955505371e+00
1.593911796808242798e-01
-1.768139123916625977e+00
3.922487199306488037e-01
-7.210758924484252930e-01
7.062614560127258301e-01
-1.064854264259338379e+00
4.425009191036224365e-01
-1.369851112365722656e+00
100 100
-9.942268729209899902e-01
3.634824752807617188e-01
-1.150753498077392578e+00
-2.187628597021102905e-01
1.696157455444335938e+00
-6.875113844871520996e-01
1.257894873619079590e+00
-7.219607830047607422e-01
3.365413248538970947e-01
5.414408445358276367e-01
-7.170951366424560547e-01
-3.213161602616310120e-02
-9.559462666511535645e-01
-6.410903334617614746e-01
5.646624565124511719e-01
-8.315133452415466309e-01
5.400518774986267090e-01
-1.729790717363357544e-01
3.472968935966491699e-01
-8.102565258741378784e-02
-1.603047370910644531e+00
6.884272396564483643e-02
8.789288997650146484e-01
-1.712322980165481567e-02
-2.482165545225143433e-01
1.120658278465270996e+00
-1.280363678932189941e+00
-1.587304174900054932e-01
-8.037559986114501953e-01
9.020880460739135742e-01
1.182821035385131836e+00
1.583633303642272949e+00
-6.227734684944152832e-01
-3.208423554897308350e-01
2.764658629894256592e-01
1.475429892539978027e+00
-1.452022910118103027e+00
1.288832575082778931e-01
1.732679367065429688e+00
-1.071284413337707520e+00
5.555624365806579590e-01
1.211437582969665527e+00
-7.586722970008850098e-01
-7.974615097045898438e-01
-7.140225172042846680e-01
-8.450026065111160278e-02
-7.904215902090072632e-02
-1.482959508895874023e+00
2.971374392509460449e-01
-6.160296499729156494e-02
-1.973242610692977905e-01
-1.885300129652023315e-01
1.026774048805236816e-01
1.537681221961975098e+00
1.251920104026794434e+00
1.777171015739440918e+00
-9.958867430686950684e-01
7.386929392814636230e-01
-7.391767203807830811e-02
8.327134847640991211e-01
-6.928550004959106445e-01
2.880381792783737183e-02
1.125290393829345703e+00
2.002609893679618835e-02
1.091229915618896484e+00
7.340354323387145996e-01
1.829759180545806885e-01
1.764673709869384766e+00
5.474831163883209229e-02
-1.195873498916625977e+00
4.001556932926177979e-01
6.080706119537353516e-01
2.205916196107864380e-01
-9.161220192909240723e-01
1.161977946758270264e-01
-1.366165995597839355e+00
2.709597051143646240e-01
2.637750208377838135e-01
9.346935153007507324e-01
1.251120567321777344e+00
-6.689260601997375488e-01
1.555784702301025391e+00
-1.036754369735717773e+00
7.659235000610351562e-01
5.030781626701354980e-01
-1.473545879125595093e-01
-1.047094911336898804e-01
-8.687623739242553711e-01
-2.173690348863601685e-01
1.049436554312705994e-01
1.053927838802337646e-01
1.518659442663192749e-01
-1.402458190917968750e+00
-1.956846714019775391e+00
-8.659935742616653442e-02
8.919120430946350098e-01
6.558604836463928223e-01
-4.112840592861175537e-01
-2.657256722450256348e-01
1.294635534286499023e-01
1.178654313087463379e+00
3.404249250888824463e-01
-4.106445908546447754e-01
8.680161237716674805e-01
1.597735524177551270e+00
2.818682193756103516e-01
3.917148411273956299e-01
-8.647130727767944336e-01
1.014665365219116211e+00
-1.360862135887145996e+00
9.102119505405426025e-02
9.537672400474548340e-01
1.873805046081542969e+00
-1.224815368652343750e+00
-1.929335892200469971e-01
-4.508751034736633301e-01
1.587900876998901367e+00
-1.690649390220642090e-01
-2.027102231979370117e+00
2.356010228395462036e-01
7.844576239585876465e-01
-4.220643267035484314e-02
2.026559412479400635e-01
-1.601238608360290527e+00
-2.877651214599609375e+00
7.875313758850097656e-01
9.747205674648284912e-02
-3.917791843414306641e-01
1.426819413900375366e-01
-2.781890630722045898e-01
1.110604524612426758e+00
9.268783926963806152e-01
-3.775137364864349365e-01
1.330925583839416504e+00
2.278390169143676758e+00
-8.310608565807342529e-02
1.257948875427246094e+00
2.431990206241607666e-01
-1.817834019660949707e+00
1.748562455177307129e-01
1.620381921529769897e-01
-1.215788245201110840e+00
7.395853400230407715e-01
-1.174852132797241211e+00
-2.880218029022216797e-01
-1.337523579597473145e+00
8.596900850534439087e-02
-1.035959124565124512e-01
1.153235077857971191e+00
1.738275766372680664e+00
2.454819977283477783e-01
-2.365670442581176758e+00
-1.943093538284301758e+00
-1.798291921615600586e+00
1.871025597210973501e-04
1.295417070388793945e+00
-1.954935491085052490e-01
1.765319108963012695e+00
2.072450816631317139e-01
1.308075934648513794e-01
1.404152631759643555e+00
-1.132051572203636169e-01
-8.521836400032043457e-01
-4.156426787376403809e-01
1.236510276794433594e+00
9.940823912620544434e-01
1.863755464553833008e+00
7.050932198762893677e-02
2.415755748748779297e+00
1.414001822471618652e+00
-4.953640997409820557e-01
-2.205850929021835327e-01
-6.103072762489318848e-01
-2.588262259960174561e-01
1.323837876319885254e+00
-1.846594512462615967e-01
-2.320174425840377808e-01
-2.644719183444976807e-01
-7.466437667608261108e-02
-7.936629652976989746e-01
2.167767286300659180e-01
5.133392661809921265e-02
9.310652613639831543e-01
-1.017652273178100586e+00
-8.100013434886932373e-02
-1.869685202836990356e-01
-1.919451475143432617e+00
-1.585214257240295410e+00
-1.303783416748046875e+00
-9.611017256975173950e-02
-1.102479934692382812e+00
-1.149638816714286804e-01
6.202109158039093018e-02
-4.524041414260864258e-01
2.087033033370971680e+00
1.070663332939147949e+00
-1.019084334373474121e+00
-1.177902698516845703e+00
-1.782966107130050659e-01
-1.486123085021972656e+00
-1.077264547348022461e+00
3.124599754810333252e-01
8.466771841049194336e-01
-8.834602683782577515e-02
-9.871383756399154663e-02
-8.874374628067016602e-01
7.971825003623962402e-01
8.784020692110061646e-02
8.872408866882324219e-01
-9.450619220733642578e-01
1.359163641929626465e+00
-8.897844702005386353e-02
-6.107762455940246582e-01
9.440700411796569824e-01
-6.103019118309020996e-01
1.058322191238403320e+00
1.391507029533386230e+00
-2.077104747295379639e-01
1.421099781990051270e+00
-9.222816824913024902e-01
1.497246623039245605e-01
5.048033595085144043e-01
2.051173448562622070e+00
-3.763772547245025635e-01
7.964464426040649414e-01
6.453670263290405273e-01
-6.653124690055847168e-01
3.157291710376739502e-01
1.538386702537536621e+00
2.376739233732223511e-01
3.330811858177185059e-01
1.221707582473754883e+00
4.447920918464660645e-01
-2.401903569698333740e-01
7.765036821365356445e-01
3.729084134101867676e-01
-1.864671230316162109e+00
-1.528554677963256836e+00
-1.310053586959838867e+00
-6.168790459632873535e-01
-9.868090748786926270e-01
-5.875041484832763672e-01
2.730147242546081543e-01
1.471650481224060059e+00
9.125735163688659668e-01
-1.942924708127975464e-01
3.957574367523193359e-01
9.859063625335693359e-01
-3.269700407981872559e-01
1.391861438751220703e+00
6.554640531539916992e-01
1.465940356254577637e+00
4.857507646083831787e-01
5.788747072219848633e-01
5.140012502670288086e-01
-7.811493873596191406e-01
1.036691740155220032e-01
-1.255999207496643066e+00
4.712382256984710693e-01
4.611536264419555664e-01
-6.307207345962524414e-01
1.295068025588989258e+00
2.477159500122070312e-01
-1.616506457328796387e+00
5.997386574745178223e-01
6.966586112976074219e-01
-2.218874692916870117e+00
-1.320630311965942383e-01
3.040608465671539307e-01
2.707510292530059814e-01
-1.231788992881774902e-01
-9.783351421356201172e-01
9.040830284357070923e-02
-6.827549338340759277e-01
-1.437927603721618652e+00
-1.109073042869567871e+00
1.996976017951965332e+00
5.085216760635375977e-01
-1.954828053712844849e-01
1.695155911147594452e-02
-3.578515648841857910e-01
-5.046601295471191406e-01
-8.720508813858032227e-01
-1.135693788528442383e+00
2.424308359622955322e-01
-1.594065785408020020e+00
-4.177505970001220703e-01
3.411088287830352783e-01
-4.010749161243438721e-01
2.880471944808959961e-01
-1.050960898399353027e+00
1.742742300033569336e+00
-8.985349535942077637e-01
1.235970333218574524e-01
1.938398122787475586e+00
3.055170774459838867e-01
-6.845771670341491699e-01
8.725079298019409180e-01
4.843478798866271973e-01
-1.907543092966079712e-01
6.980567574501037598e-01
1.857879042625427246e+00
-7.479430735111236572e-02
-4.084684327244758606e-02
1.730549216270446777e+00
6.411314010620117188e-01
-8.944591283798217773e-01
-8.627507686614990234e-01
1.673048257827758789e+00
-1.877672076225280762e-01
9.479694962501525879e-01
-7.980113029479980469e-01
-8.612691164016723633e-01
-9.866400361061096191e-01
-6.155020594596862793e-01
2.178478538990020752e-01
-9.212191700935363770e-01
2.644936561584472656e+00
4.197486340999603271e-01
-6.641141772270202637e-01
-6.856686472892761230e-01
1.488602995872497559e+00
-6.493764519691467285e-01
1.775493741035461426e+00
-9.494327902793884277e-01
1.815535277128219604e-01
2.837469801306724548e-02
-2.759425640106201172e-01
-2.059465646743774414e+00
-9.453592896461486816e-01
4.132523834705352783e-01
4.524069130420684814e-01
2.065278768539428711e+00
-4.825575649738311768e-01
-2.488300502300262451e-01
4.125792384147644043e-01
2.595909357070922852e+00
4.294515550136566162e-01
1.433314323425292969e+00
-6.471928954124450684e-01
1.002666115760803223e+00
-6.741310358047485352e-01
1.999953091144561768e-01
6.509587764739990234e-01
1.198576092720031738e+00
-6.808940321207046509e-02
1.110010266304016113e+00
-4.167896509170532227e-01
-2.412087440490722656e+00
-3.639872789382934570e+00
1.031509995460510254e+00
9.629889726638793945e-01
-3.911630511283874512e-01
-7.224656343460083008e-01
-5.833277478814125061e-02
-6.289302706718444824e-01
-9.362697601318359375e-02
4.181056916713714600e-01
7.586390972137451172e-01
-1.853237152099609375e-01
1.102672576904296875e+00
-9.101559519767761230e-01
-1.017495632171630859e+00
-1.017875194549560547e+00
2.036387622356414795e-01
1.396634459495544434e+00
-6.938257217407226562e-01
4.435305893421173096e-01
7.352197766304016113e-01
2.283113479614257812e+00
4.380550682544708252e-01
1.453807353973388672e-01
-1.110679209232330322e-01
4.134880304336547852e-01
1.157514095306396484e+00
-3.162558376789093018e-01
-9.914242029190063477e-01
-6.699734926223754883e-01
-6.435152292251586914e-01
1.881503343582153320e+00
7.845471054315567017e-02
-9.583352208137512207e-01
-3.554019033908843994e-01
-4.475414752960205078e-01
2.927979528903961182e-01
-1.066566184163093567e-01
-8.023970574140548706e-02
-9.992631077766418457e-01
-1.860436081886291504e+00
7.426384687423706055e-01
7.988825440406799316e-03
-2.220671892166137695e+00
3.661785125732421875e-01
6.519445180892944336e-01
2.049460411071777344e+00
1.222145795822143555e+00
-5.290472507476806641e-01
-3.135197162628173828e-01
-1.269391894340515137e+00
-2.644289843738079071e-02
6.324641108512878418e-01
1.715176552534103394e-01
9.397013187408447266e-01
-2.682787477970123291e-01
8.525516390800476074e-01
1.471643567085266113e+00
-8.086419701576232910e-01
4.467177391052246094e-01
4.486489295959472656e-01
2.588787674903869629e-01
7.448685169219970703e-01
-3.713985532522201538e-02
1.916945576667785645e-01
-8.497118949890136719e-01
8.101695179939270020e-01
-5.025919079780578613e-01
-7.061461210250854492e-01
-6.041850447654724121e-01
-1.645122885704040527e+00
1.636759757995605469e+00
-1.030545711517333984e+00
3.291990160942077637e-01
-3.279454112052917480e-01
5.070552825927734375e-01
1.134985685348510742e-01
-4.300666749477386475e-01
1.421516574919223785e-02
1.088307857513427734e+00
1.531850546598434448e-01
-6.458626985549926758e-01
5.665723681449890137e-01
3.403178155422210693e-01
4.507524669170379639e-01
-1.780244231224060059e+00
-2.071048974990844727e+00
1.057948946952819824e+00
-2.292208373546600342e-01
-5.253032445907592773e-01
-6.450097560882568359e-01
-8.246802091598510742e-01
8.853169083595275879e-01
5.634520649909973145e-01
1.343950629234313965e+00
-5.816814303398132324e-01
6.273062825202941895e-01
-8.946499228477478027e-01
1.446360707283020020e+00
6.684761643409729004e-01
-1.849856257438659668e+00
1.234512448310852051e+00
8.132460713386535645e-01
1.515409052371978760e-01
-1.289770364761352539e+00
2.269192337989807129e-01
1.071117669343948364e-01
-3.584638833999633789e-01
8.572954535484313965e-01
6.141392588615417480e-01
-1.441618204116821289e+00
1.100386977195739746e+00
-9.330415725708007812e-01
2.332030087709426880e-01
-1.463362425565719604e-01
2.106468379497528076e-01
-7.271282076835632324e-01
-2.082927703857421875e+00
-2.286498069763183594e+00
-1.050441622734069824e+00
7.123833894729614258e-01
-8.961474299430847168e-01
-1.390165805816650391e+00
3.819266259670257568e-01
-4.845238327980041504e-01
1.527066379785537720e-01
2.137407302856445312e+00
-2.478851079940795898e-01
-5.200728774070739746e-01
2.976674139499664307e-01
8.284037113189697266e-01
-1.490241885185241699e+00
3.278417512774467468e-02
6.770120263099670410e-01
2.299313545227050781e-01
3.079359233379364014e-01
-1.988806128501892090e-01
-9.091023802757263184e-01
-4.947530627250671387e-01
1.638933122158050537e-01
1.831591367721557617e+00
-1.538962960243225098e+00
3.491639792919158936e-01
-1.007532715797424316e+00
8.545690774917602539e-01
-2.209421014413237572e-03
2.038137912750244141e-01
-2.852346897125244141e-01
1.415996789932250977e+00
1.189525008201599121e+00
-1.246830821037292480e+00
-1.400865912437438965e+00
6.926798820495605469e-01
-6.427578628063201904e-02
1.937680363655090332e+00
8.857066035270690918e-01
1.145029738545417786e-01
-1.143027186393737793e+00
1.339847147464752197e-01
-5.622043609619140625e-01
-4.592279791831970215e-01
-7.979698777198791504e-01
4.612556695938110352e-01
-3.215720504522323608e-02
-2.032191753387451172e+00
-4.058858007192611694e-02
-3.321924060583114624e-02
-3.543892875313758850e-02
-3.131386041641235352e-01
-7.451101392507553101e-02
3.766363561153411865e-01
1.525703191757202148e+00
-2.115799784660339355e-01
1.590539693832397461e+00
2.150147855281829834e-01
1.784459114074707031e+00
-4.200069010257720947e-01
-1.127163887023925781e+00
1.525791645050048828e+00
-2.624822139739990234e+00
1.585308790206909180e+00
1.304305553436279297e+00
-1.363735079765319824e+00
-4.711065292358398438e-01
9.301100373268127441e-01
8.353043794631958008e-01
-2.379624843597412109e+00
-8.145640492439270020e-01
2.606342136859893799e-01
8.146614432334899902e-01
1.625945419073104858e-01
5.021139383316040039e-01
-1.984774619340896606e-01
2.775472402572631836e-01
-2.108690887689590454e-01
-2.450412511825561523e+00
-9.893854856491088867e-01
-1.609886288642883301e+00
-7.611394524574279785e-01
-4.886013865470886230e-01
3.001241385936737061e-01
7.405766248703002930e-01
1.304022073745727539e+00
2.575032711029052734e-01
1.203199148178100586e+00
5.260387659072875977e-01
-6.776121854782104492e-01
1.015155792236328125e+00
3.772528469562530518e-01
1.094039440155029297e+00
-8.297092318534851074e-01
-2.739975154399871826e-01
-4.689408838748931885e-01
-2.043396711349487305e+00
-5.194700956344604492e-01
1.157268285751342773e+00
1.274035096168518066e+00
-1.411060571670532227e+00
6.969866156578063965e-01
-9.972777366638183594e-01
-2.180472612380981445e-01
-1.790443181991577148e+00
-1.377249509096145630e-01
5.930157303810119629e-01
-9.512551478110253811e-04
-1.753157258033752441e+00
5.477102398872375488e-01
8.297405242919921875e-01
-7.570586800575256348e-01
1.041392683982849121e+00
-3.889522552490234375e-01
-5.901494296267628670e-04
-8.245236873626708984e-01
1.097694039344787598e+00
1.239898562431335449e+00
-6.184830665588378906e-01
1.693814247846603394e-02
-2.434702515602111816e-01
4.489032085984945297e-03
1.513540893793106079e-01
-8.420769572257995605e-01
-2.438967704772949219e+00
-2.653383314609527588e-01
-1.235646843910217285e+00
1.249049305915832520e+00
-7.421597838401794434e-02
3.153470456600189209e-01
9.090721607208251953e-01
2.878318130970001221e-01
3.244754672050476074e-01
8.601866960525512695e-01
7.853488922119140625e-01
-1.038306951522827148e+00
-9.534354805946350098e-01
-1.468492269515991211e+00
-1.374625086784362793e+00
-5.785663723945617676e-01
-8.659019470214843750e-01
1.002188682556152344e+00
1.402513742446899414e+00
5.761075019836425781e-01
-5.416616201400756836e-01
-3.698664605617523193e-01
-1.312924623489379883e+00
8.814393281936645508e-01
9.292940497398376465e-01
2.498452737927436829e-02
1.368575453758239746e+00
1.916771411895751953e+00
1.378804206848144531e+00
-8.246410489082336426e-01
1.046106338500976562e+00
1.086012721061706543e+00
9.079382568597793579e-02
1.129213497042655945e-01
1.388887882232666016e+00
-9.048107862472534180e-01
2.882778644561767578e-01
4.942166060209274292e-02
1.241529464721679688e+00
2.635726630687713623e-01
5.413798149675130844e-03
1.055702447891235352e+00
-6.910655498504638672e-01
-1.091673016548156738e+00
-1.303416043519973755e-01
5.766889825463294983e-02
-1.491406083106994629e+00
2.924999594688415527e-02
-1.172192335128784180e+00
-4.512169398367404938e-03
5.819994211196899414e-01
-1.790081620216369629e+00
-9.938610196113586426e-01
-3.867138922214508057e-01
-2.032454311847686768e-01
5.312453508377075195e-01
-5.622889995574951172e-01
8.254770636558532715e-01
3.211707472801208496e-01
-1.416448831558227539e+00
4.262942373752593994e-01
3.007023036479949951e-01
4.806278645992279053e-01
1.443281888961791992e+00
1.624356269836425781e+00
-2.381991147994995117e+00
8.561441302299499512e-01
1.764164090156555176e+00
3.276449441909790039e-01
-4.225538074970245361e-01
-6.837882995605468750e-01
1.496227979660034180e+00
-1.647171139717102051e+00
6.885027885437011719e-01
8.865051865577697754e-01
-2.674319744110107422e-01
1.171125411987304688e+00
8.799754828214645386e-02
7.098151445388793945e-01
1.372982144355773926e+00
1.605698019266128540e-01
-6.347718834877014160e-01
-1.164733409881591797e+00
2.409038692712783813e-02
1.050330162048339844e+00
-6.512773633003234863e-01
8.859598040580749512e-01
1.546814322471618652e+00
-1.112183779478073120e-01
1.230869650840759277e+00
-3.442175984382629395e-01
1.012074828147888184e+00
1.101158499717712402e+00
2.005569458007812500e+00
-4.051944315433502197e-01
-6.623036861419677734e-01
3.628442883491516113e-01
-1.626966595649719238e+00
-3.533405959606170654e-01
-2.406263202428817749e-01
2.753167748451232910e-01
-7.327793836593627930e-01
9.325200319290161133e-01
4.723768532276153564e-01
2.531733512878417969e+00
5.557055771350860596e-02
1.698812097311019897e-01
-3.507841825485229492e-01
-1.850220263004302979e-01
1.377292990684509277e+00
-1.855416893959045410e+00
-1.110769510269165039e+00
-1.141911745071411133e+00
-1.670256972312927246e+00
7.402204275131225586e-01
3.230399638414382935e-02
-8.285144567489624023e-01
-3.393876254558563232e-01
-1.594442576169967651e-01
-1.685933768749237061e-01
-3.200026452541351318e-01
-3.356468677520751953e-01
-1.538019180297851562e-01
-3.422632515430450439e-01
-7.528935372829437256e-02
1.060264229774475098e+00
1.071663975715637207e+00
7.191813588142395020e-01
-3.207479789853096008e-02
-1.223198026418685913e-01
1.658973097801208496e+00
-3.715475499629974365e-01
9.876466393470764160e-01
-4.471392929553985596e-01
4.189379215240478516e-01
2.636931240558624268e-01
-1.170218735933303833e-01
1.434346199035644531e+00
-4.747188091278076172e-01
-6.994326114654541016e-01
-1.187696695327758789e+00
-3.288060426712036133e-01
3.039055503904819489e-02
4.016300141811370850e-01
-1.188306808471679688e+00
4.386647641658782959e-01
1.143006682395935059e+00
1.420546889305114746e+00
1.387943387031555176e+00
-4.990859627723693848e-01
2.673693180084228516e+00
3.815396130084991455e-02
9.020154476165771484e-01
1.737585544586181641e+00
5.847916007041931152e-01
-1.622490882873535156e-01
-1.110110759735107422e+00
-1.440207839012145996e+00
7.525041699409484863e-01
-1.046066761016845703e+00
3.304547071456909180e-02
-2.192712068557739258e+00
7.788889408111572266e-01
-9.658273484092205763e-06
-3.659841716289520264e-01
2.337026149034500122e-01
8.983720541000366211e-01
1.074010133743286133e+00
6.320981979370117188e-01
3.787493407726287842e-01
-3.679845631122589111e-01
-1.529407382011413574e+00
-1.450347185134887695e+00
-4.242095947265625000e-01
-1.207072854042053223e+00
8.795636706054210663e-03
-5.677048861980438232e-02
-7.936936020851135254e-01
1.849485486745834351e-01
3.539068102836608887e-01
1.538766920566558838e-01
1.608114391565322876e-01
-1.669803738594055176e+00
-1.310890674591064453e+00
-5.004444122314453125e-01
1.993130087852478027e+00
1.766520500183105469e+00
4.237221479415893555e-01
-8.447829484939575195e-01
5.552530884742736816e-01
-1.765292048454284668e+00
2.138773679733276367e+00
-1.566380620002746582e+00
4.441899955272674561e-01
-1.006948590278625488e+00
-5.876826643943786621e-01
7.577924132347106934e-01
6.848585605621337891e-01
8.352913260459899902e-01
-8.225411176681518555e-02
1.433558821678161621e+00
1.668959736824035645e+00
-1.017301678657531738e+00
-7.384997606277465820e-01
1.624935865402221680e-01
-5.932191386818885803e-02
-5.303496718406677246e-01
1.587816357612609863e+00
1.078318595886230469e+00
1.061031103134155273e+00
1.058377981185913086e+00
-1.008666396141052246e+00
-1.708991408348083496e+00
-3.675774633884429932e-01
-3.901763856410980225e-01
-1.389034867286682129e+00
-1.759496450424194336e+00
-1.278942823410034180e+00
-4.375316202640533447e-01
-3.098978698253631592e-01
-3.093129992485046387e-01
2.252628654241561890e-01
1.229815721511840820e+00
-1.207403421401977539e+00
-5.525460839271545410e-01
-4.727194905281066895e-01
-1.794423103332519531e+00
-1.431069225072860718e-01
2.024620056152343750e+00
2.353926301002502441e-01
-7.256150245666503906e-02
-1.838925480842590332e+00
3.440763950347900391e-01
1.011792540550231934e+00
8.445245027542114258e-01
-1.324129700660705566e+00
-1.841425001621246338e-01
1.111409783363342285e+00
-3.187631607055664062e+00
-9.338885545730590820e-01
-3.370051085948944092e-02
-8.047363758087158203e-01
-1.823946714401245117e+00
1.897037476301193237e-01
-8.364029526710510254e-01
1.445537805557250977e-01
-8.980795145034790039e-01
-8.584296703338623047e-01
1.430195569992065430e-01
-5.218276381492614746e-01
1.563708931207656860e-01
-8.518137931823730469e-01
-3.960483968257904053e-01
-1.148213028907775879e+00
-2.250656932592391968e-01
-1.149066090583801270e+00
1.561225771903991699e+00
-1.210753917694091797e+00
-1.198620438575744629e+00
1.146749615669250488e+00
4.664664268493652344e-01
-1.638790845870971680e+00
-3.342232108116149902e-02
1.901528835296630859e-01
-3.523045778274536133e-02
-7.989994287490844727e-01
-3.474429249763488770e-01
-3.722504973411560059e-01
-4.035559892654418945e-01
2.234445333480834961e+00
-2.505951523780822754e-01
4.547818601131439209e-01
-5.414692163467407227e-01
5.858978629112243652e-01
4.032010138034820557e-01
9.582491517066955566e-01
1.944776892662048340e+00
1.336169242858886719e+00
1.478960990905761719e+00
2.194463968276977539e+00
-4.809116125106811523e-01
-1.323825955390930176e+00
-1.086964726448059082e+00
-3.815128700807690620e-03
-2.096818685531616211e-01
1.724647760391235352e+00
8.022985458374023438e-01
-1.912323832511901855e-01
1.891260743141174316e+00
4.659670963883399963e-02
1.159924626350402832e+00
1.970788538455963135e-01
2.875109612941741943e-01
5.635474920272827148e-01
-3.363211452960968018e-01
-1.278256535530090332e+00
-4.012562334537506104e-01
2.290426939725875854e-01
-3.991819322109222412e-01
-2.250889301300048828e+00
4.055227041244506836e-01
-5.255317687988281250e-01
-2.218302935361862183e-01
2.064303636550903320e+00
-3.621741235256195068e-01
-1.468279957771301270e-01
-9.209914207458496094e-01
2.173191606998443604e-01
-6.379122734069824219e-01
8.136633634567260742e-01
2.393610030412673950e-02
-1.323441863059997559e+00
1.233266353607177734e+00
-9.854450821876525879e-01
1.726422086358070374e-02
1.559573054313659668e+00
-3.295895457267761230e-01
1.337108373641967773e+00
1.816212296485900879e+00
-2.112619727849960327e-01
-8.901230692863464355e-01
-1.318527579307556152e+00
5.262142419815063477e-01
-2.550700008869171143e-01
-1.694084852933883667e-01
1.471833109855651855e+00
2.440804004669189453e+00
2.538637876510620117e+00
-2.197701334953308105e-01
-1.691622257232666016e+00
1.098074197769165039e+00
-4.178784787654876709e-01
-1.196738719940185547e+00
-1.662754654884338379e+00
-1.029199510812759399e-01
5.509005188941955566e-01
5.720358490943908691e-01
3.530246913433074951e-01
-5.219026207923889160e-01
-4.935544133186340332e-01
9.875539541244506836e-01
-7.505217194557189941e-01
-1.596989154815673828e+00
-9.519617557525634766e-01
-9.019424021244049072e-02
-1.284929871559143066e+00
-9.634453058242797852e-01
5.048796534538269043e-01
1.231961965560913086e+00
-3.169840574264526367e-01
-1.000489294528961182e-01
-7.486656904220581055e-01
-1.507461071014404297e+00
2.631260454654693604e-01
1.924770176410675049e-01
1.484313905239105225e-01
1.228509902954101562e+00
1.097136616706848145e+00
6.509233117103576660e-01
1.607498712837696075e-02
4.136782884597778320e-01
-1.377669572830200195e+00
-8.502148836851119995e-02
-2.849984765052795410e-01
9.993063211441040039e-01
1.412751913070678711e+00
1.786661505699157715e+00
-8.004518747329711914e-01
-2.559313476085662842e-01
-3.510243892669677734e-01
-4.710194766521453857e-01
-7.011665105819702148e-01
7.918102741241455078e-01
-2.072329044342041016e+00
-9.197552800178527832e-01
8.451629281044006348e-01
3.587909936904907227e-01
3.238923311233520508e+00
-3.301806151866912842e-01
8.656666874885559082e-01
-9.476544857025146484e-01
1.421789884567260742e+00
-1.120057463645935059e+00
1.609664559364318848e+00
-4.737131893634796143e-01
3.700708448886871338e-01
1.212473750114440918e+00
1.674663662910461426e+00
-1.357153505086898804e-01
4.260761141777038574e-01
-1.521208789199590683e-02
9.194924831390380859e-01
7.899143099784851074e-01
6.556048989295959473e-01
-1.616971254348754883e+00
1.104097127914428711e+00
8.804810643196105957e-01
-2.804085426032543182e-02
4.951203167438507080e-01
1.327697753906250000e+00
6.699522733688354492e-01
5.663356184959411621e-01
1.556343555450439453e+00
1.176949858665466309e+00
-1.831521987915039062e-01
-2.482431173324584961e+00
-4.396364092826843262e-02
-1.744107246398925781e+00
1.258955150842666626e-01
-1.490586996078491211e+00
2.787638269364833832e-02
1.185094833374023438e+00
-8.783063851296901703e-03
-1.302891075611114502e-01
-2.380584478378295898e+00
8.963018655776977539e-01
-1.256060481071472168e+00
2.557199895381927490e-01
1.086255669593811035e+00
-5.359959229826927185e-02
3.648696839809417725e-01
3.196913003921508789e+00
1.661664247512817383e+00
-1.999622136354446411e-01
2.157430499792098999e-01
-6.996222734451293945e-01
1.338894009590148926e+00
-1.092703461647033691e+00
1.094427347183227539e+00
1.004347324371337891e+00
2.333742141723632812e+00
6.088554859161376953e-01
6.959634423255920410e-01
1.836159676313400269e-01
-2.800227999687194824e-01
-1.034070491790771484e+00
-7.779754996299743652e-01
1.800128817558288574e+00
9.762883782386779785e-01
2.127497345209121704e-01
1.206740662455558777e-01
-2.577013254165649414e+00
-5.378015041351318359e-01
-3.881609737873077393e-01
3.005364350974559784e-02
2.854766547679901123e-01
-3.026725649833679199e-01
-1.093256235122680664e+00
-3.149901628494262695e-01
1.028273329138755798e-01
5.677842497825622559e-01
9.834172725677490234e-01
5.015182495117187500e-01
-8.324818611145019531e-01
1.632129848003387451e-01
-3.034820556640625000e-01
2.321614265441894531e+00
-2.592580020427703857e-01
-5.155682563781738281e-01
8.394828438758850098e-02
-1.340514779090881348e+00
1.097689792513847351e-01
9.413195252418518066e-01
-1.258951425552368164e+00
-6.432138681411743164e-01
-9.971547126770019531e-01
4.436957836151123047e-01
-4.818763136863708496e-01
-1.106523394584655762e+00
1.984115481376647949e+00
-4.803964793682098389e-01
-2.588402032852172852e-01
-8.479372262954711914e-01
-7.314867377281188965e-01
8.819434046745300293e-01
8.317667841911315918e-01
-6.723570078611373901e-02
-4.911951720714569092e-01
-9.482105970382690430e-01
-4.237823784351348877e-01
-5.450025200843811035e-01
1.425732374191284180e-01
-5.323914885520935059e-01
-2.032979726791381836e+00
-1.676675558090209961e+00
1.673489689826965332e+00
1.168753147125244141e+00
2.102194428443908691e-01
1.891484498977661133e+00
-6.540936827659606934e-01
4.597448408603668213e-01
-1.992977559566497803e-01
1.021687865257263184e+00
-4.497109949588775635e-01
1.085956171154975891e-01
3.703764677047729492e-01
4.129058867692947388e-02
1.390178650617599487e-01
8.399176001548767090e-01
4.250397384166717529e-01
-4.937151372432708740e-01
1.423276066780090332e+00
-6.509722471237182617e-01
7.903766632080078125e-01
-1.239977404475212097e-01
1.554991006851196289e+00
2.092715501785278320e+00
5.344841629266738892e-02
8.591992259025573730e-01
-1.195361614227294922e+00
6.360066682100296021e-02
6.563024520874023438e-01
2.322360724210739136e-01
-8.197876811027526855e-01
1.020611643791198730e+00
2.313664108514785767e-01
-1.995897851884365082e-03
3.199007511138916016e-01
8.205589652061462402e-01
-1.454100847244262695e+00
1.977293044328689575e-01
-9.196293950080871582e-01
-7.121271491050720215e-01
-7.770537734031677246e-01
3.236944377422332764e-01
1.494177579879760742e+00
-2.705495953559875488e-01
-4.064819812774658203e-01
-7.564542889595031738e-01
2.955519556999206543e-01
-1.650545150041580200e-01
1.415235400199890137e+00
-1.033497691154479980e+00
5.129305124282836914e-01
-1.474585980176925659e-01
1.742899656295776367e+00
-7.970044761896133423e-02
-2.154218703508377075e-01
5.002891421318054199e-01
3.769311681389808655e-02
1.422120928764343262e+00
-9.355641007423400879e-01
-6.878325343132019043e-01
-9.289646744728088379e-01
-8.752904534339904785e-01
-4.373886287212371826e-01
7.843887805938720703e-01
-1.531080126762390137e+00
-1.002005696296691895e+00
9.226816892623901367e-01
7.207946181297302246e-01
-1.116815090179443359e+00
6.347646713256835938e-01
9.329640269279479980e-01
-1.168073058128356934e+00
-7.037219405174255371e-01
4.368305206298828125e-01
-4.082522690296173096e-01
8.321279883384704590e-01
1.622674703598022461e+00
1.300340294837951660e+00
9.930800199508666992e-01
1.672156333923339844e+00
3.508720099925994873e-01
7.362823933362960815e-03
1.412703156471252441e+00
3.880231082439422607e-01
-9.346266388893127441e-01
1.969830840826034546e-01
7.391906380653381348e-01
1.257929563522338867e+00
-1.307654142379760742e+00
-4.242941737174987793e-01
8.974757790565490723e-01
-1.200475022196769714e-01
6.419550776481628418e-01
7.439876198768615723e-01
1.598956286907196045e-01
-4.839234799146652222e-02
-9.282187819480895996e-01
-1.867386817932128906e+00
-1.007952332496643066e+00
1.270692467689514160e+00
-8.398408889770507812e-01
1.698617815971374512e+00
8.451185822486877441e-01
6.113247871398925781e-01
7.306022197008132935e-02
-3.835917711257934570e-01
1.364638447761535645e+00
-9.166002273559570312e-01
-4.013066291809082031e-01
-1.145809888839721680e+00
-1.788828015327453613e+00
6.705031394958496094e-01
5.113350749015808105e-01
4.984311163425445557e-01
-1.693411111831665039e+00
-2.653334438800811768e-01
-9.202030897140502930e-01
-3.665095940232276917e-02
1.591874808073043823e-01
1.581689119338989258e+00
2.502148747444152832e-01
1.874874114990234375e+00
1.156653046607971191e+00
-7.969959825277328491e-02
-5.319854710251092911e-03
-1.347628474235534668e+00
-3.289165258407592773e+00
-4.426224902272224426e-02
-6.011675596237182617e-01
5.302335023880004883e-01
5.653782486915588379e-01
-5.240412950515747070e-01
3.551962077617645264e-01
-2.969060838222503662e-01
-2.038586616516113281e+00
-1.283246755599975586e+00
1.813235580921173096e-01
-1.992538571357727051e+00
-1.148167848587036133e+00
1.123472809791564941e+00
3.894282281398773193e-01
5.399402976036071777e-01
-2.578828632831573486e-01
-1.837610453367233276e-01
4.629408419132232666e-01
4.806427657604217529e-01
-7.993151247501373291e-02
3.229355216026306152e-01
-3.203060328960418701e-01
-1.111233085393905640e-01
9.011800289154052734e-01
-6.538503766059875488e-01
-4.973717331886291504e-01
3.632363379001617432e-01
-9.332247078418731689e-03
6.427764296531677246e-01
5.089805126190185547e-01
-1.347524486482143402e-02
6.356816887855529785e-01
1.139473676681518555e+00
-3.549907356500625610e-02
-1.004220128059387207e+00
-7.821362018585205078e-01
3.982730507850646973e-01
-6.117195487022399902e-01
2.987408936023712158e-01
1.021528363227844238e+00
-1.580289751291275024e-01
1.118466138839721680e+00
-1.258269071578979492e+00
2.586978197097778320e+00
1.259837627410888672e+00
-1.096053838729858398e+00
-4.050889909267425537e-01
-1.188662648200988770e+00
5.214201211929321289e-01
-4.099743068218231201e-01
-7.913135290145874023e-01
-2.872746467590332031e+00
-1.637483537197113037e-01
-2.424441725015640259e-01
4.427796602249145508e-01
-1.671874672174453735e-01
8.819999694824218750e-01
-8.242586255073547363e-01
3.486994206905364990e-01
-1.225871965289115906e-01
-3.912813663482666016e-01
-5.733945965766906738e-01
1.616245508193969727e+00
7.864275574684143066e-01
6.193956136703491211e-01
-6.567350625991821289e-01
4.670707136392593384e-02
-2.515273392200469971e-01
-1.235740661621093750e+00
-7.516676187515258789e-01
2.063072443008422852e+00
5.062521621584892273e-02
-9.577640891075134277e-01
-8.941975235939025879e-02
-1.552937030792236328e-01
3.646418750286102295e-01
2.550498768687248230e-02
-5.200200900435447693e-02
-8.661806583404541016e-01
1.546086072921752930e+00
1.131811887025833130e-01
1.484265327453613281e+00
8.331023454666137695e-01
4.373371005058288574e-01
6.019902229309082031e-01
2.899074256420135498e-01
3.557430803775787354e-01
6.877279281616210938e-01
-7.008472681045532227e-01
-1.096919178962707520e+00
-1.314672470092773438e+00
-3.163329660892486572e-01
7.179075479507446289e-01
4.154888391494750977e-01
-6.858109831809997559e-01
1.683145284652709961e+00
-9.422183781862258911e-02
1.813519001007080078e+00
4.811339974403381348e-01
-2.860537469387054443e-01
-4.929765164852142334e-01
-3.089891970157623291e-01
-7.051157951354980469e-02
-4.179021716117858887e-01
-3.405601903796195984e-02
1.636639475822448730e+00
-8.551202416419982910e-01
5.586758852005004883e-01
-6.624016165733337402e-01
2.860289216041564941e-01
-6.861314773559570312e-01
-2.973013520240783691e-01
7.943670153617858887e-01
-9.482164978981018066e-01
-1.168287634849548340e+00
4.031163752079010010e-01
-6.544072031974792480e-01
-9.652529358863830566e-01
-9.141578078269958496e-01
2.991195917129516602e-01
-1.212567090988159180e+00
-2.598108291625976562e+00
1.730155467987060547e+00
-2.331638336181640625e-01
3.515359759330749512e-01
9.535715579986572266e-01
-9.604012370109558105e-01
-9.113571047782897949e-01
6.650130748748779297e-01
8.381416201591491699e-01
-7.109311223030090332e-01
-2.813935875892639160e-01
3.791777491569519043e-01
1.807739019393920898e+00
1.642382860183715820e+00
-4.317910969257354736e-01
6.215046048164367676e-01
-5.546172261238098145e-01
9.476804137229919434e-01
1.829681694507598877e-01
1.360927104949951172e+00
1.194944381713867188e+00
-2.259983867406845093e-01
-1.803387045860290527e+00
3.659521937370300293e-01
-1.295753598213195801e+00
8.164947628974914551e-01
2.062067508697509766e+00
2.657766580581665039e+00
1.549192070960998535e-01
5.266460776329040527e-01
3.175133168697357178e-01
1.323573589324951172e-01
-3.142416477203369141e-02
-1.547848820686340332e+00
-1.130896687507629395e+00
2.066382914781570435e-01
-3.447631001472473145e-02
-1.192995190620422363e+00
-1.359694898128509521e-01
5.273127555847167969e-01
9.588162899017333984e-01
2.038008928298950195e+00
7.377783060073852539e-01
9.106378555297851562e-01
1.465497612953186035e+00
4.474625885486602783e-01
4.262317419052124023e-01
5.783432126045227051e-01
-8.187390565872192383e-01
1.068084359169006348e+00
-1.679318547248840332e-01
-9.498764872550964355e-01
-2.067860774695873260e-02
1.339593291282653809e+00
6.481789946556091309e-01
-1.306385695934295654e-01
-2.576713263988494873e-01
5.447818040847778320e-01
-7.887372374534606934e-01
3.538569509983062744e-01
5.269734859466552734e-01
3.519737124443054199e-01
-1.559783339500427246e+00
1.233583092689514160e+00
1.325182169675827026e-01
2.049876004457473755e-01
-2.073632478713989258e-01
2.306351900100708008e+00
-5.751998424530029297e-01
4.384838938713073730e-01
-3.747844696044921875e-01
-5.533540844917297363e-01
2.007628679275512695e-01
2.102056741714477539e-01
-1.483248829841613770e+00
1.259955525398254395e+00
-1.674540340900421143e-02
-6.545054912567138672e-01
-4.678755700588226318e-01
-3.703700006008148193e-01
-3.756322860717773438e-01
1.834830880165100098e+00
-2.635761201381683350e-01
1.691409587860107422e+00
1.192980527877807617e+00
1.398840695619583130e-01
-1.246315121650695801e+00
3.483379259705543518e-02
-2.705803513526916504e-01
1.946984291076660156e+00
5.176596641540527344e-01
9.918285608291625977e-01
5.143243074417114258e-02
-5.471961498260498047e-01
3.162759244441986084e-01
6.052730679512023926e-01
3.005507230758666992e+00
-1.163221120834350586e+00
-7.174894679337739944e-03
1.658411264419555664e+00
-1.891864657402038574e+00
-2.730092287063598633e+00
2.505349218845367432e-01
4.358523190021514893e-01
-1.451749801635742188e+00
-1.632726788520812988e+00
3.093794286251068115e-01
-3.528706133365631104e-01
3.439263403415679932e-01
-5.183111429214477539e-01
-1.045999884605407715e+00
-7.818485498428344727e-01
-4.553540349006652832e-01
7.791094183921813965e-01
8.293511867523193359e-01
1.910565495491027832e-01
2.426862239837646484e+00
9.350122809410095215e-01
2.755452692508697510e-01
1.870302110910415649e-01
7.317528128623962402e-01
-5.231276527047157288e-02
-1.476891517639160156e+00
1.356863617897033691e+00
9.712036252021789551e-01
-1.203938126564025879e+00
-7.834560871124267578e-01
-9.545363187789916992e-01
7.249978184700012207e-01
1.529498696327209473e+00
2.544639110565185547e-01
-3.526673838496208191e-02
-1.809295773506164551e+00
3.096966817975044250e-02
5.963599681854248047e-01
1.659682393074035645e+00
-7.678427100181579590e-01
6.406581997871398926e-01
8.133897185325622559e-01
1.475664138793945312e+00
-4.440663158893585205e-01
2.907311618328094482e-01
-1.013862729072570801e+00
5.726113915443420410e-01
-3.829757571220397949e-01
-1.271114945411682129e-01
-8.462659120559692383e-01
1.394898176193237305e+00
-7.953630089759826660e-01
6.688916087150573730e-01
-5.169167518615722656e-01
-7.604895830154418945e-01
2.709763050079345703e-01
5.551401376724243164e-01
-1.862922787666320801e+00
1.085085868835449219e+00
3.945371210575103760e-01
1.126579761505126953e+00
1.170681953430175781e+00
6.279811263084411621e-01
-6.914100795984268188e-02
-1.375733256340026855e+00
3.627855181694030762e-01
-6.157364845275878906e-01
8.858287930488586426e-01
3.764753937721252441e-01
3.635016381740570068e-01
2.120580524206161499e-01
-3.199575841426849365e-01
-4.186359643936157227e-01
1.063647150993347168e+00
-3.945119082927703857e-01
-7.131870388984680176e-01
-3.818810582160949707e-01
6.384837627410888672e-01
-7.505395412445068359e-01
-2.193678766489028931e-01
6.176348328590393066e-01
-1.481479287147521973e+00
-6.379035115242004395e-01
-1.660209894180297852e+00
-7.592472434043884277e-01
4.379407688975334167e-02
1.010823011398315430e+00
3.537009060382843018e-01
-4.949476420879364014e-01
1.177187085151672363e+00
-8.336004018783569336e-01
1.261256486177444458e-01
-7.835432887077331543e-01
5.895041227340698242e-01
-2.437067031860351562e+00
-4.673858582973480225e-01
-2.695427536964416504e-01
-7.403308749198913574e-01
3.422778248786926270e-01
-2.833689153194427490e-01
8.758002519607543945e-01
2.229960449039936066e-02
1.004911780357360840e+00
-6.829353570938110352e-01
7.005591392517089844e-01
-1.374272942543029785e+00
-1.111841917037963867e+00
1.846740990877151489e-01
3.017811179161071777e-01
-3.735166275873780251e-03
8.763717114925384521e-02
4.498439654707908630e-02
1.051939249038696289e+00
9.972971081733703613e-01
-1.144888758659362793e+00
1.863775968551635742e+00
-1.885081827640533447e-01
-9.251307249069213867e-01
4.508388936519622803e-01
1.444379091262817383e+00
-1.845462471246719360e-01
1.296820878982543945e+00
-1.916866183280944824e+00
1.276832669973373413e-01
6.334561109542846680e-01
-2.678846418857574463e-01
-4.058381170034408569e-02
6.669212877750396729e-02
-2.665085494518280029e-01
3.177213370800018311e-01
-1.356908798217773438e+00
-5.917763113975524902e-01
1.856891214847564697e-01
-1.725403308868408203e+00
-1.389237880706787109e+00
3.464231193065643311e-01
8.182139992713928223e-01
4.399163126945495605e-01
1.453278809785842896e-01
7.836537957191467285e-01
1.811264634132385254e+00
7.284793257713317871e-01
7.394936680793762207e-02
1.250811934471130371e+00
1.140756487846374512e+00
3.247939646244049072e-01
1.354614734649658203e+00
-2.063412666320800781e+00
1.566255450248718262e+00
-1.102545499801635742e+00
6.513664871454238892e-02
-5.587352514266967773e-01
-1.004188179969787598e+00
4.748277962207794189e-01
1.206652402877807617e+00
-8.807075619697570801e-01
-4.106682240962982178e-01
3.974059522151947021e-01
-1.409433484077453613e+00
-8.494484424591064453e-01
4.786041378974914551e-01
-6.211099028587341309e-01
-1.387086212635040283e-01
1.062799215316772461e+00
3.988327383995056152e-01
-8.854631781578063965e-01
1.053205370903015137e+00
-2.380137592554092407e-01
-1.894471049308776855e-01
1.331223696470260620e-01
-1.623445153236389160e-01
6.958137750625610352e-01
6.434059143066406250e-01
1.177436470985412598e+00
1.084362983703613281e+00
-4.168258905410766602e-01
8.819212317466735840e-01
2.898484170436859131e-01
4.033421576023101807e-01
5.607050061225891113e-01
4.517791792750358582e-02
6.789442300796508789e-01
-2.209798336029052734e+00
6.561718881130218506e-03
-6.387854814529418945e-01
2.347651869058609009e-02
2.933401614427566528e-02
-2.355562448501586914e+00
-1.143071949481964111e-01
1.829104423522949219e-01
9.049462080001831055e-01
3.820142522454261780e-02
1.321717739105224609e+00
-3.265750110149383545e-01
5.848110914230346680e-01
7.740889787673950195e-01
6.694285273551940918e-01
-3.705268800258636475e-01
8.044381141662597656e-01
1.363581717014312744e-01
-5.501723885536193848e-01
-1.242377877235412598e+00
-1.901685148477554321e-01
6.562083959579467773e-01
4.564036130905151367e-01
-8.107554912567138672e-01
1.204506158828735352e+00
-6.530295610427856445e-01
4.047991931438446045e-01
-5.806257724761962891e-01
-1.053077816963195801e+00
8.323140740394592285e-01
-4.365590214729309082e-01
1.529760837554931641e+00
-3.119761347770690918e-01
7.704250216484069824e-01
8.785076737403869629e-01
-1.063659310340881348e+00
-1.516330957412719727e+00
-2.703936696052551270e-01
-8.359701633453369141e-01
1.175171494483947754e+00
1.712690293788909912e-01
5.229063630104064941e-01
-5.195076465606689453e-01
5.069519206881523132e-02
6.464346051216125488e-01
6.709828972816467285e-01
-1.118526935577392578e+00
-1.245526790618896484e+00
-9.935692548751831055e-01
-5.166060924530029297e-01
8.827614188194274902e-01
9.356334209442138672e-01
3.240743279457092285e-01
-5.049182176589965820e-01
1.621452569961547852e+00
2.975956797599792480e-01
1.223723217844963074e-01
-1.278236389160156250e+00
7.158879637718200684e-01
-7.508748769760131836e-02
-1.174431562423706055e+00
2.652944326400756836e-01
2.929205179214477539e+00
2.488655328750610352e+00
-1.799937248229980469e+00
-1.332499265670776367e+00
-4.633128046989440918e-01
-1.494466066360473633e+00
-5.217468738555908203e-01
2.655296325683593750e-01
-1.383038043975830078e+00
-1.825546771287918091e-01
-1.835455060005187988e+00
1.116677284240722656e+00
1.442571401596069336e+00
-5.635711550712585449e-01
1.419655323028564453e+00
-4.622581601142883301e-01
-1.045950412750244141e+00
9.729833006858825684e-01
-1.195579543709754944e-01
2.748546302318572998e-01
-4.277618601918220520e-02
-9.905126690864562988e-01
-1.489481449127197266e+00
-1.083528101444244385e-01
-8.603362441062927246e-01
9.229031205177307129e-01
-3.383892774581909180e-01
-1.709950208663940430e+00
-5.301281213760375977e-01
-1.027904272079467773e+00
2.269827365875244141e+00
1.393649101257324219e+00
-1.166147351264953613e+00
-9.924009442329406738e-01
-4.254343807697296143e-01
7.027321308851242065e-02
-2.785566151142120361e-01
1.036378860473632812e+00
1.423865556716918945e-01
-2.567427158355712891e+00
1.089688777923583984e+00
-8.938707709312438965e-01
2.156045675277709961e+00
8.535419106483459473e-01
3.376145958900451660e-01
-1.004371523857116699e+00
1.534717679023742676e-01
-2.150021553039550781e+00
-1.150276303291320801e+00
-1.510648280382156372e-01
9.020039439201354980e-01
2.917415797710418701e-01
-2.649124562740325928e-01
-5.232334136962890625e-01
1.250093221664428711e+00
7.739852070808410645e-01
-1.923023700714111328e+00
5.195359587669372559e-01
8.493543267250061035e-01
4.288084208965301514e-01
9.022225141525268555e-01
-1.802130818367004395e+00
-1.648990064859390259e-01
-1.822525024414062500e+00
1.080913543701171875e+00
-5.680861473083496094e-01
1.709654808044433594e+00
4.730232059955596924e-01
-7.648100852966308594e-01
8.133326172828674316e-01
1.304410219192504883e+00
-4.689123630523681641e-01
6.377875804901123047e-01
-1.198361992835998535e+00
3.782565593719482422e-01
6.515375524759292603e-02
-1.824310541152954102e+00
-1.541400909423828125e+00
-1.651240110397338867e+00
1.679286003112792969e+00
-4.262964427471160889e-01
-4.233534634113311768e-01
7.600973844528198242e-01
-2.396842241287231445e-01
-1.114344120025634766e+00
7.716342061758041382e-02
1.081347823143005371e+00
9.180420637130737305e-01
-1.111272096633911133e+00
2.069273144006729126e-01
1.327391028404235840e+00
7.277634739875793457e-01
-1.545695066452026367e+00
1.069778800010681152e+00
3.754190634936094284e-03
1.100922346115112305e+00
-1.095600575208663940e-01
1.661739587783813477e+00
-8.466069102287292480e-01
-1.015535235404968262e+00
3.766460120677947998e-01
-1.486343294382095337e-01
1.151754021644592285e+00
-3.354073315858840942e-02
-1.803257107734680176e+00
-8.674125075340270996e-01
-7.811960577964782715e-01
2.185862064361572266e-01
1.886727809906005859e-01
5.643726587295532227e-01
-6.478113532066345215e-01
1.469793200492858887e+00
-5.464603900909423828e-01
-2.867258787155151367e-01
1.320519566535949707e+00
-5.974485874176025391e-01
-1.424378871917724609e+00
-1.432286620140075684e+00
-4.115236103534698486e-01
-9.042219519615173340e-01
8.715243339538574219e-01
9.726755619049072266e-01
-1.537592615932226181e-02
-1.071992516517639160e+00
-1.812808156013488770e+00
-8.147109150886535645e-01
-4.086504578590393066e-01
1.188210368156433105e+00
5.418803095817565918e-01
-8.529311418533325195e-01
-1.006926417350769043e+00
9.309129118919372559e-01
8.045131564140319824e-01
-2.789173722267150879e-01
-3.625812828540802002e-01
2.104124873876571655e-01
1.914908289909362793e+00
-1.576881855726242065e-01
-1.208114847540855408e-01
1.367028951644897461e-01
1.528504848480224609e+00
-9.267249703407287598e-01
1.239878758788108826e-01
1.685936093330383301e+00
4.129691421985626221e-01
-1.296340703964233398e+00
1.146246269345283508e-01
-1.620484292507171631e-01
-1.225773215293884277e+00
1.186904430389404297e+00
1.021005392074584961e+00
-4.570297896862030029e-01
2.455710470676422119e-01
-3.437215387821197510e-01
1.485530018806457520e+00
3.839813545346260071e-02
2.108489990234375000e+00
2.424609065055847168e-01
1.747926026582717896e-01
-8.961423635482788086e-01
-1.902197301387786865e-01
-6.015228629112243652e-01
7.248342782258987427e-02
-5.242078304290771484e-01
-5.181099772453308105e-01
-6.531456112861633301e-01
7.299931645393371582e-01
8.200409412384033203e-01
-7.692427635192871094e-01
-1.812906503677368164e+00
1.041703104972839355e+00
1.324282646179199219e+00
-1.361126601696014404e-01
4.165592193603515625e-01
-1.239366292953491211e+00
4.054459929466247559e-01
-3.343564748764038086e+00
-9.959698319435119629e-01
-2.601552903652191162e-01
-2.704836845397949219e+00
1.277133941650390625e+00
8.345615267753601074e-01
6.491438746452331543e-01
5.309602022171020508e-01
1.253979802131652832e+00
-4.524284303188323975e-01
4.255738854408264160e-01
2.310774475336074829e-01
7.417355477809906006e-02
4.479459524154663086e-01
-1.715756058692932129e-01
-7.105108350515365601e-02
-4.001121222972869873e-01
1.524798512458801270e+00
2.877012789249420166e-01
-1.011743664741516113e+00
6.414876580238342285e-01
1.719032406806945801e+00
5.778519511222839355e-01
1.327257513999938965e+00
3.374420702457427979e-01
3.244052529335021973e-01
7.048656940460205078e-01
1.940229721367359161e-02
1.898957610130310059e+00
-1.012428626418113708e-01
-2.065449237823486328e+00
7.619113475084304810e-02
2.071742713451385498e-01
-4.334600567817687988e-01
2.334839105606079102e+00
3.174676299095153809e-01
1.685265660285949707e+00
-6.355547904968261719e-01
5.118665695190429688e-01
-1.148417234420776367e+00
-1.256206154823303223e+00
1.405826330184936523e+00
2.200275659561157227e+00
7.893893867731094360e-02
2.746251523494720459e-01
-3.412876427173614502e-01
-1.653807759284973145e+00
1.057126283645629883e+00
-2.338068038225173950e-01
-5.416903495788574219e-01
-7.879896759986877441e-01
-9.405413866043090820e-01
-9.075530171394348145e-01
-7.420835494995117188e-01
5.641431808471679688e-01
1.575089246034622192e-01
-4.846409261226654053e-01
-1.917522192001342773e+00
3.591026961803436279e-01
-6.194450333714485168e-02
4.326431155204772949e-01
-6.546061486005783081e-02
-1.231156945228576660e+00
1.463546395301818848e+00
-9.486516118049621582e-01
4.502203166484832764e-01
9.158697724342346191e-01
1.066738009452819824e+00
-1.419051647186279297e+00
1.807698130607604980e+00
-1.278820037841796875e-01
1.228974461555480957e+00
-8.544737696647644043e-01
4.543093740940093994e-01
8.766852021217346191e-01
-1.955438554286956787e-01
3.579794168472290039e-01
1.221754312515258789e+00
8.989564776420593262e-01
1.812533497810363770e+00
1.863272428512573242e+00
3.531192541122436523e-01
1.976838707923889160e+00
-3.396451473236083984e-01
2.520699203014373779e-01
1.173671841621398926e+00
-1.447088360786437988e+00
2.057260751724243164e+00
7.419102787971496582e-01
1.554861903190612793e+00
-5.854311585426330566e-01
-4.217680916190147400e-02
-1.374666929244995117e+00
-6.031726598739624023e-01
4.474644064903259277e-01
-3.128624558448791504e-01
-1.006540283560752869e-02
-1.023504137992858887e+00
-1.052229285240173340e+00
6.174800992012023926e-01
1.277512192726135254e+00
8.923165202140808105e-01
3.172760605812072754e-01
6.868261694908142090e-01
2.046611785888671875e+00
1.063460826873779297e+00
2.367224931716918945e+00
-1.287175416946411133e+00
3.660823106765747070e-01
-1.926713466644287109e+00
-7.711198329925537109e-01
-4.498338401317596436e-01
4.392309784889221191e-01
-2.009141921997070312e+00
1.249922037124633789e+00
6.539670228958129883e-01
1.683162897825241089e-01
8.026698231697082520e-01
7.037022113800048828e-01
-1.959901154041290283e-01
-1.762565374374389648e-01
-1.428797245025634766e+00
-3.139950037002563477e-01
-2.277279049158096313e-01
-4.089705049991607666e-01
3.913111388683319092e-01
-2.247665882110595703e+00
-1.307640820741653442e-01
-6.236271560192108154e-02
-7.632006406784057617e-01
-6.624847650527954102e-01
-2.286923527717590332e-01
-5.939720869064331055e-01
1.677006721496582031e+00
1.977096498012542725e-01
-1.034362554550170898e+00
4.765547215938568115e-01
-5.684314295649528503e-02
-3.528164029121398926e-01
1.175950765609741211e+00
1.213733315467834473e+00
1.037506580352783203e+00
-1.331361755728721619e-02
2.165552675724029541e-01
1.011816620826721191e+00
-4.344611763954162598e-01
1.480082631111145020e+00
1.950327455997467041e-01
1.360489845275878906e+00
1.774571090936660767e-01
6.693224608898162842e-02
-7.184992432594299316e-01
1.278439879417419434e+00
-1.905035376548767090e-01
9.302199482917785645e-01
-1.169242501258850098e+00
1.711727976799011230e+00
-5.397641062736511230e-01
3.596687912940979004e-01
-4.670005440711975098e-01
-2.357377529144287109e+00
1.211069896817207336e-01
-8.534470796585083008e-01
1.717006921768188477e+00
-2.390635251998901367e+00
4.844621717929840088e-01
-1.822012290358543396e-02
-9.721955060958862305e-01
-4.178050160408020020e-01
-7.659785151481628418e-01
1.107797861099243164e+00
1.136759757995605469e+00
1.277423381805419922e+00
1.357569217681884766e+00
2.841574907302856445e+00
8.426284790039062500e-01
6.879776716232299805e-01
-2.763983048498630524e-02
7.100447416305541992e-01
-9.612254500389099121e-01
4.661922454833984375e-01
1.418840527534484863e+00
8.487190008163452148e-01
1.478333711624145508e+00
2.214668035507202148e+00
2.080272674560546875e+00
-7.873055934906005859e-01
-1.644903779029846191e+00
3.165047168731689453e-01
-4.271783232688903809e-01
-9.177266806364059448e-02
-1.352843940258026123e-01
-6.971758604049682617e-01
-2.975834310054779053e-01
-7.447957992553710938e-01
1.603538542985916138e-01
-1.490767836570739746e+00
-4.067385196685791016e-01
7.649445533752441406e-01
-1.240812540054321289e+00
-2.968076169490814209e-01
6.675996631383895874e-02
7.447768449783325195e-01
-2.821755647659301758e+00
-1.176669478416442871e+00
1.051839590072631836e+00
-7.856176495552062988e-01
-9.973281621932983398e-01
-1.705478578805923462e-01
-9.766795039176940918e-01
1.345746755599975586e+00
-3.059983551502227783e-01
6.507068276405334473e-01
1.325235724449157715e+00
9.171286225318908691e-01
1.541703104972839355e+00
6.992368102073669434e-01
6.788732409477233887e-01
-2.086425423622131348e-01
1.013244166970252991e-01
-1.110173106193542480e+00
-1.407578945159912109e+00
-1.597827196121215820e+00
-2.660745382308959961e+00
6.003537178039550781e-01
1.041760444641113281e+00
1.985306739807128906e+00
-7.046720981597900391e-01
3.094946444034576416e-01
1.388793110847473145e+00
6.640028208494186401e-02
1.129706978797912598e+00
8.042495846748352051e-01
2.055841684341430664e-02
1.736078858375549316e+00
-2.440368197858333588e-02
7.909489870071411133e-01
-2.387899458408355713e-01
-8.829539418220520020e-01
-5.338472723960876465e-01
-1.540123950690031052e-02
-1.920348763465881348e+00
6.712374091148376465e-02
4.670341312885284424e-01
-1.270993798971176147e-01
-8.391637802124023438e-01
1.533829450607299805e+00
-1.431317806243896484e+00
-1.998484849929809570e+00
5.515082478523254395e-01
1.050719261169433594e+00
-7.866229414939880371e-01
-1.510236561298370361e-01
-1.728956222534179688e+00
-4.317671954631805420e-01
1.106316566467285156e+00
-1.120091557502746582e+00
1.088691115379333496e+00
1.092955470085144043e+00
-7.888768911361694336e-01
1.352721691131591797e+00
1.257804155349731445e+00
9.977050125598907471e-02
1.537598729133605957e+00
6.879351735115051270e-01
3.103041946887969971e-01
4.409193247556686401e-02
-1.109312653541564941e+00
-8.790805339813232422e-01
2.057651996612548828e+00
1.102692037820816040e-01
-3.571643829345703125e-01
7.475907206535339355e-01
-7.850394248962402344e-01
-2.104677073657512665e-02
5.125147104263305664e-01
1.109689593315124512e+00
3.595205843448638916e-01
8.841165900230407715e-01
-1.013872385025024414e+00
1.186837553977966309e+00
1.415390372276306152e+00
1.233595013618469238e-01
-7.366052269935607910e-01
-1.152826905250549316e+00
6.250401586294174194e-02
-1.797573208808898926e+00
1.470653414726257324e+00
1.034655451774597168e+00
-3.305793702602386475e-01
-3.296200931072235107e-01
-2.851986646652221680e+00
5.741235017776489258e-01
-6.970571279525756836e-01
-1.057988286018371582e+00
2.124272584915161133e+00
-1.518045365810394287e-01
-7.548409104347229004e-01
-3.866059780120849609e-01
1.749011635780334473e+00
-1.945267021656036377e-01
6.089090704917907715e-01
5.501358509063720703e-01
-2.203244902193546295e-02
1.640596866607666016e+00
-4.407381117343902588e-01
9.258375167846679688e-01
4.843632578849792480e-01
1.353517293930053711e+00
1.545005083084106445e+00
1.825227379798889160e+00
1.662416458129882812e-01
6.590368747711181641e-01
4.743472337722778320e-01
2.240836381912231445e+00
-9.443539381027221680e-01
-1.720114588737487793e+00
1.635243415832519531e+00
-1.191574215888977051e+00
-1.108828425407409668e+00
-7.186787575483322144e-02
-4.369759261608123779e-01
4.764953255653381348e-01
3.228345513343811035e-01
-7.442687153816223145e-01
1.381742060184478760e-01
2.340864181518554688e+00
-6.683036684989929199e-02
-1.255586862564086914e+00
-2.047871351242065430e+00
1.406075716018676758e+00
1.069140672683715820e+00
-6.975711584091186523e-01
-8.897222876548767090e-01
-1.766965985298156738e+00
2.344074487686157227e+00
-6.845191717147827148e-01
-2.975397706031799316e-01
-1.388785719871520996e+00
-4.613178670406341553e-01
9.019021987915039062e-01
7.737705707550048828e-01
-1.085907444357872009e-01
7.854466438293457031e-01
-8.949034214019775391e-01
1.189957261085510254e+00
-7.544134855270385742e-01
-4.048855006694793701e-01
1.948034763336181641e+00
-1.142655491828918457e+00
-1.437702029943466187e-01
6.698978543281555176e-01
-1.035320878028869629e+00
6.001496911048889160e-01
-7.480983734130859375e-01
-4.332153201103210449e-01
-6.247667074203491211e-01
-4.966882467269897461e-01
8.513020277023315430e-01
-7.326696813106536865e-02
9.748809337615966797e-01
-5.735739469528198242e-01
-1.946590691804885864e-01
5.027268528938293457e-01
-1.819526314735412598e+00
-1.728469610214233398e+00
1.284214138984680176e+00
-8.581317663192749023e-01
4.789811968803405762e-01
3.049977719783782959e-01
-2.449388980865478516e+00
-3.024160265922546387e-01
-1.625123500823974609e+00
1.430579900741577148e+00
9.447623491287231445e-01
1.174222111701965332e+00
3.707633316516876221e-01
-2.996275424957275391e-01
-2.880375981330871582e-01
-6.234615445137023926e-01
-1.166910290718078613e+00
-1.678821325302124023e+00
1.023639738559722900e-01
1.218476891517639160e-01
-1.712689548730850220e-01
8.412414193153381348e-01
8.914379477500915527e-01
-5.852880328893661499e-02
-9.664224982261657715e-01
1.979480087757110596e-01
1.278639435768127441e+00
-8.341863751411437988e-02
-4.486184101551771164e-03
-9.174458980560302734e-01
-7.525253891944885254e-01
7.711988687515258789e-01
-7.771614193916320801e-01
-2.815833091735839844e-01
7.559664845466613770e-01
1.005218386650085449e+00
-1.952950954437255859e-01
2.823219597339630127e-01
-1.054018974304199219e+00
-1.932849764823913574e+00
8.886897563934326172e-01
1.700833678245544434e+00
-7.622095942497253418e-01
-4.523332118988037109e-01
-3.465696871280670166e-01
-5.171956419944763184e-01
-2.912886440753936768e-01
-3.163550421595573425e-02
1.530475914478302002e-01
-3.624458312988281250e-01
2.266211509704589844e+00
2.173468917608261108e-01
-1.689581573009490967e-01
-5.767436027526855469e-01
-2.270614385604858398e+00
1.390142202377319336e+00
-3.931731358170509338e-02
-1.725453138351440430e+00
6.319300532341003418e-01
-7.839816808700561523e-02
1.615051865577697754e+00
5.908142328262329102e-01
4.800643026828765869e-01
-1.447935700416564941e+00
3.229317367076873779e-01
-1.132457852363586426e+00
-3.175437152385711670e-01
-8.826974630355834961e-01
9.965876936912536621e-01
-8.662091493606567383e-01
-4.736330807209014893e-01
1.748848199844360352e+00
4.174308180809020996e-01
5.879021883010864258e-01
-1.530234456062316895e+00
-8.534837365150451660e-01
1.050540897995233536e-02
-3.042100071907043457e-01
1.237203955650329590e+00
1.112856626510620117e+00
1.329492568969726562e+00
4.819303867407143116e-04
2.785221114754676819e-02
-3.838584125041961670e-01
-2.262509346008300781e+00
-1.232438325881958008e+00
-3.437300026416778564e-01
-1.066933751106262207e+00
2.997188866138458252e-01
5.026469230651855469e-01
2.882689535617828369e-01
1.440249204635620117e+00
9.105468392372131348e-01
-6.893960237503051758e-01
-6.917235255241394043e-01
2.312605679035186768e-01
1.180397748947143555e+00
3.899545669555664062e-01
1.115156888961791992e+00
-8.181313276290893555e-01
-3.783676922321319580e-01
-1.133093833923339844e-01
-9.472525119781494141e-01
-5.539844632148742676e-01
-4.574067592620849609e-01
5.291989445686340332e-01
-6.081010103225708008e-01
-9.970705509185791016e-01
-1.455323815345764160e+00
1.109682798385620117e+00
-8.302992582321166992e-01
1.082288026809692383e+00
9.164864420890808105e-01
6.173715591430664062e-01
3.833525776863098145e-01
1.087070345878601074e+00
-8.286831974983215332e-01
-1.523343801498413086e+00
8.093060851097106934e-01
6.363083720207214355e-01
-9.485093355178833008e-01
1.779768228530883789e+00
4.780784547328948975e-01
-2.880132496356964111e-01
9.503305703401565552e-02
2.490093857049942017e-01
-8.662925660610198975e-02
4.399777352809906006e-01
-1.480104960501194000e-02
-4.083479940891265869e-01
8.004667758941650391e-01
-1.259173452854156494e-01
-1.513057231903076172e+00
3.874756097793579102e-01
6.676478981971740723e-01
1.345994830131530762e+00
1.089126586914062500e+00
1.217989437282085419e-02
1.798487186431884766e+00
-3.679695427417755127e-01
-1.919811591506004333e-02
-5.967385172843933105e-01
9.843066930770874023e-01
1.594368100166320801e+00
2.169176578521728516e+00
3.961912989616394043e-01
1.080112576484680176e+00
1.119892477989196777e+00
-2.490263879299163818e-01
-6.873635053634643555e-01
-3.662544190883636475e-01
-7.094734907150268555e-01
1.467206776142120361e-01
-8.910642862319946289e-01
-9.885156750679016113e-01
3.143222928047180176e-01
-5.223236083984375000e-01
4.830094277858734131e-01
7.370203137397766113e-01
6.193003654479980469e-01
3.474231958389282227e-01
1.343671679496765137e+00
3.562187850475311279e-01
1.247698545455932617e+00
-8.792229890823364258e-01
1.486512899398803711e+00
-1.255027174949645996e+00
-2.011909931898117065e-01
9.973230957984924316e-01
1.043695092201232910e+00
-1.071368455886840820e+00
9.394559860229492188e-01
-5.904539823532104492e-01
-1.846217274665832520e+00
-4.965945780277252197e-01
-2.677644491195678711e-01
1.474454522132873535e+00
2.574450969696044922e-01
6.349290609359741211e-01
-3.705521821975708008e-01
6.662397384643554688e-01
5.514169931411743164e-01
2.446079403162002563e-01
-1.955462843179702759e-01
-1.404436111450195312e+00
4.921499490737915039e-01
1.831077039241790771e-01
1.066790580749511719e+00
-2.941977381706237793e-01
-3.800192475318908691e-01
6.490064859390258789e-01
2.202483415603637695e-01
1.055569052696228027e+00
1.706930696964263916e-01
-1.213160715997219086e-02
2.377300739288330078e+00
1.198523521423339844e+00
1.215160965919494629e+00
-3.082060337066650391e+00
-1.229164242744445801e+00
-4.171164929866790771e-01
9.012812376022338867e-01
1.872884154319763184e+00
-6.737441420555114746e-01
-1.108473315834999084e-01
1.844539165496826172e+00
-2.633402645587921143e-01
7.714076638221740723e-01
1.746603965759277344e+00
9.752128124237060547e-01
1.524242460727691650e-01
-1.210274577140808105e+00
6.703269481658935547e-01
-2.977897822856903076e-01
9.908834099769592285e-01
1.860943675041198730e+00
2.088913321495056152e-01
1.305301189422607422e+00
-1.891508698463439941e-01
-6.426147818565368652e-01
-3.754058182239532471e-01
6.356903910636901855e-01
2.977596521377563477e-01
-6.514244675636291504e-01
-2.163359880447387695e+00
2.200942993164062500e+00
1.246117234230041504e+00
-1.901585578918457031e+00
-1.531663894653320312e+00
-5.933330655097961426e-01
1.733676791191101074e+00
4.804425835609436035e-01
-6.908958554267883301e-01
-3.681165575981140137e-01
6.641019582748413086e-01
-4.935643672943115234e-01
-1.179339051246643066e+00
1.420302033424377441e+00
6.733582019805908203e-01
-3.399799168109893799e-01
6.992828845977783203e-01
1.559677362442016602e+00
3.530640900135040283e-01
4.961977899074554443e-01
-1.682450294494628906e+00
4.127468466758728027e-01
-1.518269181251525879e+00
-4.216459989547729492e-01
9.069790244102478027e-01
1.034812331199645996e+00
-6.960659027099609375e-01
-1.228782813996076584e-02
-1.430363178253173828e+00
-4.609654843807220459e-01
-1.613048195838928223e+00
7.138465046882629395e-01
8.366231918334960938e-01
5.570077896118164062e-01
-1.147932529449462891e+00
1.756907343864440918e+00
-8.355536460876464844e-01
1.678006052970886230e+00
5.213016867637634277e-01
-7.111511379480361938e-02
8.186518549919128418e-01
3.530240952968597412e-01
1.628840923309326172e+00
3.326597213745117188e-01
-1.259404420852661133e-01
-1.939157366752624512e+00
-3.939826786518096924e-01
-4.599637687206268311e-01
1.774984240531921387e+00
1.472116589546203613e+00
-7.335982322692871094e-01
-9.851318597793579102e-01
-5.265452265739440918e-01
1.058382868766784668e+00
-2.493577957153320312e+00
8.383111357688903809e-01
1.666559338569641113e+00
-3.058884441852569580e-01
-1.429227709770202637e+00
-1.096972823143005371e+00
-3.105259239673614502e-01
6.720937490463256836e-01
9.847812652587890625e-01
1.162287950515747070e+00
-3.490606546401977539e-01
1.384862542152404785e+00
1.575828552246093750e+00
1.101952552795410156e+00
4.074074327945709229e-02
-4.633035361766815186e-01
-2.850775122642517090e-01
-2.086137682199478149e-01
9.475132226943969727e-01
3.002929128706455231e-02
5.587744712829589844e-01
1.209165334701538086e+00
8.812408447265625000e-01
-4.904923215508460999e-02
-6.511700749397277832e-01
2.811688184738159180e-01
8.264087438583374023e-01
2.746154785156250000e+00
6.660814881324768066e-01
2.047474309802055359e-02
8.212397098541259766e-01
9.368554353713989258e-01
1.332939565181732178e-01
1.404047489166259766e+00
-1.405103802680969238e-01
-2.346446961164474487e-01
8.128353953361511230e-01
6.496112793684005737e-02
-2.155822038650512695e+00
3.534980416297912598e-01
-1.691519856452941895e+00
-7.658520936965942383e-01
1.588715910911560059e+00
3.752231299877166748e-01
-1.276136517524719238e+00
5.304748415946960449e-01
9.753111004829406738e-01
1.253233551979064941e+00
-2.130011081695556641e+00
8.995621800422668457e-01
-1.415193438529968262e+00
-3.123851418495178223e-01
-6.610569953918457031e-01
3.291524648666381836e-01
1.258784532546997070e+00
-1.423615068197250366e-01
7.885870933532714844e-01
4.496868848800659180e-01
-1.757959276437759399e-01
-1.410901308059692383e+00
7.004992365837097168e-01
1.646928340196609497e-01
-6.394895911216735840e-01
-6.596952676773071289e-01
-1.207118749618530273e+00
4.824672341346740723e-01
6.888827085494995117e-01
5.219219923019409180e-01
-6.645469665527343750e-01
-1.164551854133605957e+00
-6.320900917053222656e-01
-1.190982222557067871e+00
2.900305092334747314e-01
-3.646595478057861328e-01
-9.185160994529724121e-01
7.190359234809875488e-01
1.009885668754577637e+00
4.347776174545288086e-01
-6.645726561546325684e-01
-4.288658499717712402e-01
6.560555696487426758e-01
4.466413259506225586e-01
-1.176353573799133301e+00
7.930861115455627441e-01
1.307479500770568848e+00
-4.351924955844879150e-01
4.614452421665191650e-01
6.713589429855346680e-01
1.911010384559631348e+00
1.520374417304992676e+00
9.590453505516052246e-01
7.755194306373596191e-01
-9.297450780868530273e-01
-4.848084226250648499e-02
2.315078020095825195e+00
-2.016811072826385498e-01
2.124523878097534180e+00
2.290395498275756836e+00
-5.571106076240539551e-01
-2.374134361743927002e-01
1.057257801294326782e-01
4.423504173755645752e-01
3.007987141609191895e-01
-5.292342305183410645e-01
8.823531866073608398e-01
-1.167959272861480713e-01
3.524866998195648193e-01
-1.310944199562072754e+00
7.162258625030517578e-01
3.384861350059509277e-01
-8.292396068572998047e-01
-1.050177887082099915e-01
1.494470357894897461e+00
2.876453101634979248e-01
-4.075445234775543213e-02
9.135772585868835449e-01
9.949918985366821289e-01
5.046512484550476074e-01
1.507115125656127930e+00
-1.112938046455383301e+00
-1.630274415016174316e+00
-8.998960256576538086e-01
-1.241326689720153809e+00
-1.233579397201538086e+00
-1.869199573993682861e-01
3.685047477483749390e-02
3.081867992877960205e-01
-7.965140342712402344e-01
-2.550021708011627197e-01
1.796613693237304688e+00
-1.037726625800132751e-01
1.080318391323089600e-01
-3.898896276950836182e-01
7.207302451133728027e-01
1.486060470342636108e-01
-1.563873648643493652e+00
-1.475242972373962402e+00
-8.495717644691467285e-01
-6.308565139770507812e-01
-3.711460530757904053e-01
4.424809813499450684e-01
6.993508338928222656e-02
1.495334029197692871e+00
-9.671496748924255371e-01
-4.487556591629981995e-02
-1.240849122405052185e-01
-4.546353816986083984e-01
-1.466799020767211914e+00
-1.414506316184997559e+00
4.253135919570922852e-01
-8.432601392269134521e-02
-1.456493884325027466e-01
9.591408371925354004e-01
1.534315466880798340e+00
7.536188364028930664e-01
6.754263043403625488e-01
8.218060135841369629e-01
-6.148790121078491211e-01
-4.985782802104949951e-01
-8.027664422988891602e-01
1.240854978561401367e+00
-2.518532872200012207e-01
-5.039303302764892578e-01
9.318034648895263672e-01
-2.412139624357223511e-01
2.948396094143390656e-02
-4.364277422428131104e-01
3.921902477741241455e-01
-1.184825420379638672e+00
6.296027898788452148e-01
3.134964033961296082e-02
1.319368958473205566e+00
7.822677493095397949e-01
-2.389319390058517456e-01
-2.544902563095092773e-01
1.317138522863388062e-01
2.613260177895426750e-03
8.910230547189712524e-02
-9.212777018547058105e-01
-4.995160996913909912e-01
-4.032591879367828369e-01
-6.144089102745056152e-01
-3.917389810085296631e-01
-2.641662359237670898e-01
3.092687427997589111e-01
-1.032848596572875977e+00
1.365816712379455566e+00
-1.434048891067504883e+00
6.736674308776855469e-01
-8.052917718887329102e-01
-1.155899763107299805e+00
1.013533949851989746e+00
1.293255090713500977e-01
-1.624815464019775391e+00
-1.273267388343811035e+00
4.508579075336456299e-01
-1.120072722434997559e+00
-2.717224694788455963e-02
-6.954772472381591797e-01
5.241121649742126465e-01
-1.175084590911865234e+00
7.079896926879882812e-01
-1.792024493217468262e+00
9.742650985717773438e-01
-7.628362774848937988e-01
-3.975392580032348633e-01
9.700587391853332520e-01
-6.512926816940307617e-01
-8.175103068351745605e-01
1.457698702812194824e+00
-1.657433658838272095e-01
-5.784767270088195801e-01
2.630020976066589355e-01
-2.176541537046432495e-01
-9.393562674522399902e-01
-3.510522544384002686e-01
-3.123344480991363525e-01
6.029661893844604492e-01
-6.111104041337966919e-02
2.124794125556945801e-01
-2.839348018169403076e-01
-4.653041958808898926e-01
7.553457617759704590e-01
1.644379138946533203e+00
1.128407597541809082e+00
-1.469133734703063965e+00
1.838814139366149902e+00
-8.361145257949829102e-01
-1.625740647315979004e+00
-1.990964263677597046e-01
-2.102429419755935669e-01
-7.816035747528076172e-01
-7.369691878557205200e-02
-9.467555880546569824e-01
-1.348844647407531738e+00
1.612650603055953979e-02
5.414481759071350098e-01
-9.104490876197814941e-01
2.264857053756713867e+00
1.852511882781982422e+00
-2.516374111175537109e+00
1.035327196121215820e+00
6.517201066017150879e-01
-1.808626353740692139e-01
-4.385554194450378418e-01
6.281889081001281738e-01
-8.053981699049472809e-03
-2.113877534866333008e+00
1.397074937820434570e+00
2.595591545104980469e-01
-7.638164162635803223e-01
7.140265405178070068e-02
-9.587711095809936523e-01
1.157781004905700684e+00
1.752097964286804199e+00
1.213064074516296387e+00
-1.433317542076110840e+00
-6.768636703491210938e-01
-1.548651576042175293e+00
-1.158264636993408203e+00
-1.237348198890686035e+00
-5.073081851005554199e-01
-2.221545130014419556e-01
1.186461329460144043e+00
1.169985771179199219e+00
-1.128910183906555176e+00
-1.441205143928527832e+00
-6.225367784500122070e-01
-4.607365131378173828e-01
-2.861695885658264160e-01
-5.291826128959655762e-01
1.371200799942016602e+00
-8.351423591375350952e-02
-1.046699509024620056e-01
3.290039598941802979e-01
-6.858339309692382812e-01
-4.122102856636047363e-01
2.095309551805257797e-03
3.390570878982543945e-01
-7.525861263275146484e-01
5.517380833625793457e-01
-2.701225578784942627e-01
-1.405293703079223633e+00
1.135570287704467773e+00
6.490039825439453125e-01
-5.248597264289855957e-01
-2.199270874261856079e-01
3.580876067280769348e-02
1.107517480850219727e+00
-5.854696631431579590e-01
5.507721304893493652e-01
-2.227979153394699097e-01
-7.017104625701904297e-01
-9.499251246452331543e-01
-3.808777332305908203e-01
7.472940087318420410e-01
-5.050781965255737305e-01
-3.741813004016876221e-01
2.970817387104034424e-01
-2.992102503776550293e-01
1.514820098876953125e+00
8.331066370010375977e-01
-3.227148056030273438e-01
-2.692098021507263184e-01
2.652313113212585449e-01
-8.095429539680480957e-01
1.000567436218261719e+00
-3.848578035831451416e-01
-1.622712165117263794e-01
-6.088078022003173828e-01
-7.080164551734924316e-01
-7.700123190879821777e-01
-1.529509663581848145e+00
1.571776121854782104e-01
6.564732640981674194e-02
3.985757827758789062e-01
1.712118387222290039e-01
1.004301428794860840e+00
-1.141686320304870605e+00
1.115985155105590820e+00
-1.986101984977722168e+00
1.257581710815429688e+00
1.332059741020202637e+00
2.205387353897094727e-01
1.091672033071517944e-01
2.293945550918579102e+00
-1.557872295379638672e+00
-6.693273782730102539e-01
7.620467990636825562e-02
-2.557814419269561768e-01
8.644236326217651367e-01
-1.328213214874267578e+00
-1.311801671981811523e-01
1.650133371353149414e+00
-1.169858455657958984e+00
1.663776755332946777e+00
-2.067254036664962769e-01
-2.689948678016662598e-01
-5.015762448310852051e-01
4.611418247222900391e-01
1.929526627063751221e-01
1.268680214881896973e+00
1.017036318778991699e+00
6.826498508453369141e-01
6.898164153099060059e-01
1.425733685493469238e+00
-7.556221485137939453e-01
-1.041782855987548828e+00
6.327817440032958984e-01
-4.733856022357940674e-02
-7.762410640716552734e-01
-3.995302319526672363e-01
9.906121343374252319e-02
1.340839982032775879e+00
2.202033102512359619e-01
2.930236816406250000e+00
-4.367341995239257812e-01
-1.363353013992309570e+00
-1.232154369354248047e+00
-3.021677434444427490e-01
-8.836785554885864258e-01
-3.977603018283843994e-01
-1.439869124442338943e-02
4.242792725563049316e-01
1.422592848539352417e-01
-4.234227538108825684e-01
1.805209875106811523e+00
-3.901946842670440674e-01
-1.332254648208618164e+00
-2.400870084762573242e+00
-8.819215893745422363e-01
-8.513771891593933105e-01
5.156527161598205566e-01
6.406391263008117676e-01
-9.092020988464355469e-01
3.328428864479064941e-01
6.099866032600402832e-01
6.906431913375854492e-01
-1.718479156494140625e+00
-6.943847537040710449e-01
-7.193599343299865723e-01
1.256710171699523926e+00
8.877571225166320801e-01
1.311694383621215820e+00
-1.441297531127929688e+00
-9.914250969886779785e-01
1.490911006927490234e+00
-1.077930688858032227e+00
1.263134121894836426e+00
2.680367708206176758e+00
-1.323010325431823730e+00
3.511931598186492920e-01
-8.844156265258789062e-01
-9.657618403434753418e-01
-1.296972155570983887e+00
8.664476871490478516e-01
3.825661912560462952e-02
4.587391912937164307e-01
-2.191510349512100220e-01
4.754376113414764404e-01
1.041349411010742188e+00
-1.024426817893981934e+00
2.576628923416137695e-01
-1.957381814718246460e-01
-4.733234941959381104e-01
9.358901530504226685e-02
-1.624004244804382324e+00
-1.093334913253784180e+00
1.822533831000328064e-02
6.106546521186828613e-01
-1.283297061920166016e+00
1.055547833442687988e+00
-1.675915002822875977e+00
-1.687269091606140137e+00
1.858549714088439941e+00
-1.198555111885070801e+00
-2.067036181688308716e-01
7.506498694419860840e-02
1.956648468971252441e+00
6.340556144714355469e-01
-1.948657929897308350e-01
2.585482299327850342e-01
1.116065502166748047e+00
5.194479227066040039e-01
4.863631725311279297e-01
-1.377971768379211426e+00
8.101339936256408691e-01
1.838337071239948273e-02
-4.831723123788833618e-02
-4.532699286937713623e-01
1.994453787803649902e+00
-4.106312990188598633e-01
-1.035776495933532715e+00
1.449554562568664551e-01
-1.865335345268249512e+00
-1.170192584395408630e-01
-2.296787947416305542e-01
5.766033530235290527e-01
5.457372069358825684e-01
1.054114222526550293e+00
1.998753994703292847e-01
1.337248563766479492e+00
1.546641469001770020e+00
3.239271938800811768e-01
6.298553943634033203e-01
6.612571477890014648e-01
-2.421330511569976807e-01
-1.838230252265930176e+00
-1.721053361892700195e+00
5.213629007339477539e-01
-6.966331601142883301e-01
-1.241313695907592773e+00
8.626480102539062500e-01
-1.017196536064147949e+00
-5.416633561253547668e-02
6.853681802749633789e-02
-9.388552308082580566e-01
-2.692070305347442627e-01
-2.429179906845092773e+00
1.028756350278854370e-01
1.873091310262680054e-01
-1.391836881637573242e+00
1.002708435058593750e+00
2.085129767656326294e-01
-1.452283382415771484e+00
-2.146979808807373047e+00
-2.306368947029113770e-01
-5.666722655296325684e-01
-9.769573211669921875e-01
3.007707297801971436e-01
1.513098359107971191e+00
7.222663164138793945e-01
-6.092996597290039062e-01
9.139822721481323242e-01
-6.623874306678771973e-01
-1.604628711938858032e-01
-1.796747565269470215e+00
2.117671817541122437e-01
2.832189798355102539e+00
5.536462068557739258e-01
-8.647712469100952148e-01
9.809070229530334473e-01
-5.267906785011291504e-01
-7.465460896492004395e-01
2.811028718948364258e+00
-7.170688509941101074e-01
7.763518691062927246e-01
-1.225865110754966736e-01
-3.067152798175811768e-01
6.299316287040710449e-01
2.515426874160766602e+00
-1.180827841162681580e-01
5.171331763267517090e-01
4.995126128196716309e-01
-1.263568282127380371e+00
-8.860560655593872070e-01
-5.817129015922546387e-01
8.181922435760498047e-01
-1.542620062828063965e+00
1.085589051246643066e+00
2.734543979167938232e-01
1.742107234895229340e-02
-6.897305846214294434e-01
1.374755382537841797e+00
-7.113067507743835449e-01
-1.380241751670837402e+00
7.541127204895019531e-01
-1.184793468564748764e-02
1.039116859436035156e+00
7.610946893692016602e-01
-5.306827425956726074e-01
5.208587050437927246e-01
-4.243435338139533997e-02
5.992376804351806641e-01
-1.044890999794006348e+00
-1.185275793075561523e+00
-5.441220402717590332e-01
-1.856274127960205078e+00
2.030045270919799805e+00
4.174067080020904541e-01
-6.261134743690490723e-01
-5.687713027000427246e-01
1.052412509918212891e+00
5.038471817970275879e-01
1.161311388015747070e+00
6.133449673652648926e-01
-1.905638813972473145e+00
-1.476563453674316406e+00
-5.328699350357055664e-01
1.348009824752807617e+00
-3.892253041267395020e-01
4.233777821063995361e-01
6.837617158889770508e-01
2.934021472930908203e+00
-1.081090569496154785e-01
1.421329379081726074e+00
3.899779617786407471e-01
-4.108321368694305420e-01
-5.436511635780334473e-01
-5.121555924415588379e-01
8.963635563850402832e-01
-2.772104442119598389e-01
-2.542880773544311523e-01
-1.229222178459167480e+00
1.043350219726562500e+00
7.379724979400634766e-01
-3.736739158630371094e-01
-9.236288815736770630e-02
-1.388750910758972168e+00
-1.230736851692199707e+00
2.912804186344146729e-01
6.101635098457336426e-01
-6.534836292266845703e-01
-5.105100944638252258e-02
1.017809271812438965e+00
2.524409532546997070e+00
8.369064927101135254e-01
2.823572754859924316e-01
-2.185271233320236206e-01
-3.022864162921905518e-01
-6.495708227157592773e-01
7.500743269920349121e-01
5.780352950096130371e-01
1.038365602493286133e+00
-8.998634219169616699e-01
1.719140410423278809e-01
-5.834571719169616699e-01
-1.925282001495361328e+00
1.227291822433471680e+00
4.373208284378051758e-01
1.455250680446624756e-01
2.532020330429077148e+00
2.696521759033203125e+00
-8.340900540351867676e-01
4.920592308044433594e-01
5.225965976715087891e-01
-5.939463376998901367e-01
-2.377019375562667847e-01
3.049344420433044434e-01
5.912627577781677246e-01
1.919212818145751953e+00
1.907826423645019531e+00
2.392468042671680450e-02
5.892112255096435547e-01
3.221314400434494019e-02
-1.164984226226806641e+00
-2.881996892392635345e-02
2.399841696023941040e-01
-1.079047322273254395e+00
9.633368998765945435e-02
1.015885949134826660e+00
1.318796396255493164e+00
-2.803691625595092773e+00
-1.144244194030761719e+00
-2.206839621067047119e-01
9.514483213424682617e-01
-1.559922397136688232e-01
-7.701795548200607300e-02
-6.148877739906311035e-01
7.298135757446289062e-01
-2.021689713001251221e-02
9.666833877563476562e-01
4.137656092643737793e-01
-2.680779397487640381e-01
-6.559447944164276123e-02
8.531197309494018555e-01
8.900240659713745117e-01
1.129729151725769043e-01
4.982545077800750732e-01
9.203469753265380859e-01
-5.706124305725097656e-01
3.033013820648193359e+00
8.649281859397888184e-01
1.287469863891601562e+00
3.100764751434326172e-01
-8.371117711067199707e-01
7.840997576713562012e-01
7.835964560508728027e-01
-4.241097271442413330e-01
-7.286108136177062988e-01
1.137221157550811768e-01
-8.435890078544616699e-01
-1.588041901588439941e+00
6.915819048881530762e-01
-8.724239468574523926e-01
-4.710178375244140625e-01
1.070894479751586914e+00
-1.005255818367004395e+00
-9.831975102424621582e-01
-5.629321932792663574e-01
-1.018727794289588928e-01
-1.066266775131225586e+00
-1.361192315816879272e-01
1.381317019462585449e+00
-7.375854849815368652e-01
5.927882790565490723e-01
1.490822196006774902e+00
7.883321642875671387e-01
-4.622566327452659607e-02
-1.835293054580688477e+00
4.936349689960479736e-01
-7.833083868026733398e-01
9.832209944725036621e-01
6.312834620475769043e-01
2.061026096343994141e-01
4.234334826469421387e-01
-2.764364182949066162e-01
-6.624881625175476074e-01
-1.190937519073486328e+00
-3.906889259815216064e-02
-1.910272479057312012e+00
8.714128732681274414e-01
1.509297013282775879e+00
1.152860283851623535e+00
-2.163044810295104980e-01
-3.065209276974201202e-02
2.817122638225555420e-01
-5.704042315483093262e-01
1.370600461959838867e+00
1.488308072090148926e+00
-7.765761613845825195e-01
9.433767795562744141e-01
1.747844338417053223e+00
3.897470831871032715e-01
-2.127040147781372070e+00
-3.401977121829986572e-01
-1.233071610331535339e-01
7.872987985610961914e-01
-1.832511663436889648e+00
-1.714107275009155273e+00
1.723469257354736328e+00
-3.386642336845397949e-01
-4.077118933200836182e-01
3.073588311672210693e-01
-7.730942368507385254e-01
-1.961284503340721130e-02
9.400512576103210449e-01
-9.681158065795898438e-01
1.307787537574768066e+00
-8.169574737548828125e-01
-2.374899685382843018e-01
-1.042390108108520508e+00
-1.853505074977874756e-01
5.411434546113014221e-02
-9.260913133621215820e-01
6.269863247871398926e-02
-1.059582270681858063e-02
6.118083596229553223e-01
-6.002186983823776245e-02
6.851469278335571289e-01
4.593165814876556396e-01
-4.420401155948638916e-01
2.570740282535552979e-01
-1.537405371665954590e+00
1.105570316314697266e+00
1.678543388843536377e-01
7.307339310646057129e-01
-4.104880392551422119e-01
-1.300433635711669922e+00
1.184853196144104004e+00
-6.193816196173429489e-03
8.148785233497619629e-01
1.057363271713256836e+00
-1.705773770809173584e-01
9.749149084091186523e-01
-4.212589859962463379e-01
-5.326647311449050903e-02
4.452574625611305237e-02
2.682365709915757179e-03
2.449530124664306641e+00
-1.542568802833557129e+00
2.094846010208129883e+00
-3.253359794616699219e-01
-4.872810244560241699e-01
-1.569175601005554199e+00
-1.664451241493225098e+00
-1.672941684722900391e+00
-8.374470472335815430e-01
-2.194903850555419922e+00
3.758778423070907593e-02
3.330806270241737366e-02
-4.222191274166107178e-01
-1.821102052927017212e-01
9.237198829650878906e-01
-4.694161415100097656e-01
-1.988004207611083984e+00
-1.057408452033996582e+00
-1.141247749328613281e+00
-5.652353763580322266e-01
-4.139916598796844482e-01
-8.858633637428283691e-01
1.776470988988876343e-01
-4.650125801563262939e-01
-6.401616930961608887e-01
1.609243869781494141e+00
2.048056125640869141e+00
1.511469125747680664e+00
-6.644479930400848389e-02
4.999755918979644775e-01
2.564628422260284424e-01
5.431042313575744629e-01
2.592528164386749268e-01
-6.240971684455871582e-01
6.563830971717834473e-01
-9.735114574432373047e-01
-7.543677091598510742e-01
-2.919008731842041016e-01
8.172854781150817871e-01
7.724098563194274902e-01
-1.020557999610900879e+00
-4.445815384387969971e-01
2.235705614089965820e+00
2.940468490123748779e-02
6.495601534843444824e-01
-2.113933801651000977e+00
4.974924400448799133e-02
1.182473778724670410e+00
4.210028648376464844e-01
6.033946871757507324e-01
8.649139404296875000e-01
-5.044631958007812500e-01
4.413107931613922119e-01
1.104603037238121033e-01
5.474102497100830078e-01
-6.463202238082885742e-01
7.400412559509277344e-01
1.052949428558349609e+00
-7.011918425559997559e-01
-1.045763790607452393e-01
2.085672855377197266e+00
-3.036641180515289307e-01
-1.439863741397857666e-01
9.623773694038391113e-01
-8.595453500747680664e-01
1.456512928009033203e+00
-7.135902643203735352e-01
-2.298363894224166870e-01
9.796701073646545410e-01
-8.951348066329956055e-01
-5.496507287025451660e-01
1.014829754829406738e+00
-9.605657458305358887e-01
2.321198135614395142e-01
9.218922257423400879e-01
1.519857645034790039e+00
7.875667810440063477e-01
-2.781475186347961426e-01
-1.371040463447570801e+00
9.418542385101318359e-01
-8.052700161933898926e-01
1.279114127159118652e+00
-7.909055352210998535e-01
-1.506696343421936035e+00
1.122946381568908691e+00
-3.629539012908935547e-01
-5.899049043655395508e-01
6.185073778033256531e-02
1.174015522003173828e+00
4.500992223620414734e-02
-7.680478692054748535e-01
1.496588349342346191e+00
-5.051412582397460938e-01
-1.418253183364868164e+00
1.329143047332763672e+00
-2.092399895191192627e-01
-3.341856226325035095e-02
-2.178429961204528809e-01
-8.137066960334777832e-01
6.678884625434875488e-01
-8.593446016311645508e-01
-2.961535453796386719e+00
2.742362618446350098e-01
-2.272685766220092773e+00
3.302134573459625244e-01
3.159918487071990967e-01
-1.551527976989746094e+00
-4.771140217781066895e-01
7.108905315399169922e-01
8.313541412353515625e-01
-1.447495698928833008e+00
-6.042205691337585449e-01
1.536445617675781250e+00
-4.764040112495422363e-01
1.716420769691467285e+00
-6.125745177268981934e-01
-1.105135202407836914e+00
7.854998707771301270e-01
1.086018323898315430e+00
-1.580426335334777832e+00
6.524442136287689209e-02
3.139519989490509033e-01
-8.539599180221557617e-01
-2.518491819500923157e-02
-1.165851831436157227e+00
1.537386417388916016e+00
9.415609836578369141e-01
-1.200017094612121582e+00
1.459284543991088867e+00
-4.387845396995544434e-01
-7.690705657005310059e-01
-4.354796111583709717e-01
6.971886754035949707e-01
5.165618658065795898e-01
1.822901368141174316e-01
4.968734085559844971e-01
2.279149770736694336e+00
-2.518797874450683594e+00
-6.359499692916870117e-01
-1.590157747268676758e+00
6.032126545906066895e-01
-1.294709444046020508e+00
-1.738570213317871094e+00
-6.910809278488159180e-01
-1.063474655151367188e+00
6.781630516052246094e-01
-1.361915349960327148e+00
-9.042773395776748657e-02
-2.613956928253173828e+00
-1.695680975914001465e+00
1.068770051002502441e+00
-3.894490003585815430e-01
1.731181383132934570e+00
-8.392840027809143066e-01
1.022119641304016113e+00
8.266322016716003418e-01
-6.645158529281616211e-01
8.862132430076599121e-01
-6.391749978065490723e-01
7.136387228965759277e-01
8.907878398895263672e-01
2.361458301544189453e+00
1.869378209114074707e+00
-4.381765723228454590e-01
3.313148021697998047e-01
1.347241401672363281e+00
6.535379886627197266e-01
1.074004411697387695e+00
4.092521965503692627e-02
1.611603140830993652e+00
3.381253778934478760e-01
1.578453898429870605e+00
-4.886421561241149902e-01
1.463102459907531738e+00
3.498002290725708008e-01
1.121174573898315430e+00
-2.276391744613647461e+00
-1.107445716857910156e+00
-6.152565479278564453e-01
-7.314480543136596680e-01
-6.997299194335937500e-01
2.841842770576477051e-01
-1.401864886283874512e+00
-9.980760812759399414e-01
-7.670764327049255371e-01
-8.046572208404541016e-01
2.979621887207031250e-01
1.180966734886169434e+00
-1.124294519424438477e+00
1.973997831344604492e+00
8.147173523902893066e-01
1.473216414451599121e-01
2.097935914993286133e+00
-9.064955115318298340e-01
1.430782675743103027e+00
5.859925746917724609e-01
-1.097146511077880859e+00
-1.661396741867065430e+00
4.919085502624511719e-01
-1.024255990982055664e+00
2.185290157794952393e-01
-5.988579392433166504e-01
5.465581417083740234e-01
-4.314887225627899170e-01
3.228096365928649902e-01
2.859227359294891357e-01
-2.084165513515472412e-01
-9.795671105384826660e-01
1.848746061325073242e+00
-9.766835570335388184e-01
-7.665989547967910767e-02
-1.184892058372497559e+00
2.839902043342590332e-01
-2.067950367927551270e-01
1.399574518203735352e+00
3.990617096424102783e-01
1.124961256980895996e+00
-8.914204314351081848e-03
1.426080763339996338e-01
4.139099121093750000e-01
-1.796124130487442017e-01
1.196564212441444397e-01
-5.707798600196838379e-01
-2.729509174823760986e-01
-2.127146422863006592e-01
2.475035041570663452e-01
3.971157222986221313e-02
-1.017374873161315918e+00
-8.448438048362731934e-01
3.416119888424873352e-02
2.170324087142944336e+00
-5.200746059417724609e-01
-1.493493765592575073e-01
-2.045231163501739502e-01
-9.067187309265136719e-01
-1.391794800758361816e+00
1.024127975106239319e-01
-1.103502631187438965e+00
2.274744808673858643e-01
-2.485290169715881348e-01
1.902277708053588867e+00
-6.037655472755432129e-02
-4.621736705303192139e-01
-2.990339696407318115e-01
-1.005478024482727051e+00
7.102031707763671875e-01
1.139455437660217285e+00
-3.294277936220169067e-03
-6.820260286331176758e-01
-1.018740892410278320e+00
5.088089108467102051e-01
8.707586526870727539e-01
-1.471310257911682129e+00
-6.646677851676940918e-01
-8.466299772262573242e-01
-7.410895228385925293e-01
2.157088220119476318e-01
-8.034424185752868652e-01
-1.167501330375671387e+00
8.263433575630187988e-01
6.804535388946533203e-01
6.322001814842224121e-01
1.558145761489868164e+00
1.669920086860656738e+00
1.257733702659606934e-01
-3.176626563072204590e-01
4.698535501956939697e-01
-6.039450317621231079e-02
1.010613203048706055e+00
3.766666650772094727e-01
1.613932490348815918e+00
-2.970581650733947754e-01
8.046895265579223633e-02
2.984773218631744385e-01
2.358971685171127319e-01
-1.673225760459899902e-01
-1.167327642440795898e+00
-6.920944452285766602e-01
4.044091999530792236e-01
-1.564677953720092773e+00
-1.857162266969680786e-01
-2.857285737991333008e-01
-3.418670594692230225e-01
-5.051941275596618652e-01
-8.282980918884277344e-01
-3.052940964698791504e-01
-1.146253585815429688e+00
-2.954668283462524414e+00
4.732687771320343018e-01
2.237736701965332031e+00
-7.794383168220520020e-01
-6.562495827674865723e-01
5.368620753288269043e-01
9.315969347953796387e-01
-2.475091695785522461e+00
-5.358121395111083984e-01
1.790290832519531250e+00
5.983062982559204102e-01
-2.083086520433425903e-01
-5.270121693611145020e-01
-1.545607894659042358e-01
-5.368521809577941895e-01
4.965589642524719238e-01
7.948624491691589355e-01
8.334789276123046875e-01
-9.432735443115234375e-01
7.240439057350158691e-01
-1.018515825271606445e+00
6.367342919111251831e-02
3.409172892570495605e-01
-4.171075820922851562e-01
-1.854814887046813965e+00
1.662131428718566895e+00
-1.789203584194183350e-01
3.572719693183898926e-01
6.022071242332458496e-01
8.880459070205688477e-01
-9.559600949287414551e-01
9.773144125938415527e-01
-4.288488328456878662e-01
-1.321250081062316895e+00
7.990124821662902832e-02
6.758567094802856445e-01
1.436205863952636719e+00
-7.637389302253723145e-01
-8.110632300376892090e-01
2.540719211101531982e-01
-3.616763651371002197e-01
1.144856929779052734e+00
2.939776480197906494e-01
3.925218880176544189e-01
1.079133152961730957e+00
9.452424645423889160e-01
-8.402083516120910645e-01
3.472304642200469971e-01
-1.455867052078247070e+00
2.200247049331665039e+00
-1.710633277893066406e+00
5.993375182151794434e-01
1.933257579803466797e-01
1.107071638107299805e+00
-1.203317046165466309e+00
-4.890035688877105713e-01
-5.133773088455200195e-01
1.125023007392883301e+00
1.400972485542297363e+00
-1.763222694396972656e+00
-1.229135274887084961e+00
1.814747601747512817e-01
1.791552901268005371e+00
-6.746080517768859863e-01
-1.921959757804870605e+00
4.619799554347991943e-01
7.161795347929000854e-02
-9.441669583320617676e-01
9.839476943016052246e-01
4.218813776969909668e-01
5.658810734748840332e-01
2.032700300216674805e+00
-1.127992197871208191e-01
1.866778731346130371e-01
9.182022809982299805e-01
-3.425064384937286377e-01
-1.372806355357170105e-02
-9.380303621292114258e-01
1.055020689964294434e+00
-8.382022380828857422e-01
1.836951851844787598e+00
-2.295310020446777344e+00
1.296909809112548828e+00
1.629307389259338379e+00
2.305802106857299805e+00
-1.879029989242553711e+00
1.037008047103881836e+00
-1.284867405891418457e+00
9.084681272506713867e-01
2.913583219051361084e-01
1.482446670532226562e+00
-2.447155714035034180e-01
-5.058466792106628418e-01
6.146162748336791992e-01
1.882464170455932617e+00
-1.113537549972534180e+00
9.514208436012268066e-01
-2.177923470735549927e-01
1.834769010543823242e+00
-7.443473339080810547e-01
6.116600632667541504e-01
-2.673918724060058594e+00
-4.556092619895935059e-01
-3.232620358467102051e-01
6.354426145553588867e-01
9.225285649299621582e-01
-2.407774478197097778e-01
1.477900147438049316e+00
-1.606612354516983032e-01
1.177986025810241699e+00
1.131633639335632324e+00
6.298598647117614746e-02
1.143315792083740234e+00
5.845142062753438950e-03
1.219489097595214844e+00
9.566261172294616699e-01
-3.751861453056335449e-01
3.208571434020996094e+00
1.146787047386169434e+00
-3.745047152042388916e-01
-1.715926527976989746e+00
5.399417281150817871e-01
-4.574053287506103516e-01
-7.484798431396484375e-01
-4.556916356086730957e-01
6.748013496398925781e-01
1.722011327743530273e+00
9.407689422369003296e-02
-5.562672615051269531e-01
-9.231444597244262695e-01
8.116567730903625488e-01
-1.295846581459045410e+00
7.929581403732299805e-01
-8.308599591255187988e-01
1.663325309753417969e+00
3.684805631637573242e-01
2.089204341173171997e-01
-1.207420587539672852e+00
1.787462592124938965e+00
-1.337028264999389648e+00
1.154948472976684570e+00
-7.943451404571533203e-01
-1.156775116920471191e+00
2.304881811141967773e-01
-5.778187513351440430e-01
2.071724981069564819e-01
-9.550330638885498047e-01
-1.164481163024902344e+00
7.348624616861343384e-02
-6.386177539825439453e-01
-2.044554948806762695e-01
-8.650957942008972168e-01
8.975955843925476074e-01
5.952946543693542480e-01
2.139329671859741211e+00
-3.898345679044723511e-02
-5.073022842407226562e-01
1.606539607048034668e+00
1.248103007674217224e-01
1.649928838014602661e-01
1.755743980407714844e+00
8.104315400123596191e-01
2.549087405204772949e-01
6.675801277160644531e-01
4.617967084050178528e-02
2.234768390655517578e+00
5.540739297866821289e-01
2.584038972854614258e-01
9.301248788833618164e-01
-6.182292699813842773e-01
7.999316602945327759e-02
3.838007450103759766e-01
-3.720633387565612793e-01
-1.576591730117797852e+00
3.559036552906036377e-01
2.378219842910766602e+00
1.309632420539855957e+00
2.241989135742187500e+00
-2.298139221966266632e-02
1.722902894020080566e+00
4.616766870021820068e-01
1.018494129180908203e+00
-1.219733119010925293e+00
-8.021129369735717773e-01
-1.308192133903503418e+00
1.087790369987487793e+00
-5.530192852020263672e-01
-5.295025706291198730e-01
5.878518819808959961e-01
1.083107829093933105e+00
5.900235772132873535e-01
5.472779273986816406e-01
-2.283876389265060425e-02
-2.131534665822982788e-01
1.344391822814941406e+00
4.812862575054168701e-01
1.141291931271553040e-01
-1.767837554216384888e-01
1.544066786766052246e+00
-1.020229697227478027e+00
-1.232693433761596680e+00
9.373182803392410278e-02
1.841569691896438599e-01
3.182400465011596680e-01
-1.765594005584716797e+00
1.354216933250427246e+00
-2.511572539806365967e-01
-4.656394422054290771e-01
1.516803264617919922e+00
1.231449484825134277e+00
-1.381400108337402344e+00
-9.266883134841918945e-01
5.247226357460021973e-01
4.516099393367767334e-01
2.578252553939819336e-01
-1.151571273803710938e+00
1.702698320150375366e-01
1.368396282196044922e+00
3.452116847038269043e-01
9.432009458541870117e-01
8.666104078292846680e-01
-1.485344618558883667e-01
1.567919611930847168e+00
2.943867743015289307e-01
2.098206058144569397e-02
-1.676178455352783203e+00
-5.820021033287048340e-01
1.350067973136901855e+00
3.690479695796966553e-01
5.866848230361938477e-01
5.129034519195556641e-01
9.749918580055236816e-01
-7.798370122909545898e-01
-4.588766098022460938e-01
3.990792930126190186e-01
1.404819846153259277e+00
6.895792484283447266e-01
-1.858525127172470093e-01
5.969877839088439941e-01
-8.833621740341186523e-01
7.230357080698013306e-02
1.770233750343322754e+00
8.795464634895324707e-01
-6.161186695098876953e-01
-7.672304511070251465e-01
-6.267701387405395508e-01
-1.833814680576324463e-01
