3
2 20
-1.760946214199066162e-02
7.613078355789184570e-01
2.250333726406097412e-01
-6.388865709304809570e-01
-1.370463985949754715e-03
-8.472036719322204590e-01
-9.137352555990219116e-02
7.006238698959350586e-01
-6.806525588035583496e-01
-5.207715630531311035e-01
-7.210290431976318359e-01
-5.455462262034416199e-02
-1.745524853467941284e-01
-1.531479954719543457e-01
-3.387513803318142891e-03
-2.822572179138660431e-02
3.820243105292320251e-02
1.621116101741790771e-01
6.480687260627746582e-01
6.241819262504577637e-01
-7.420279979705810547e-01
-3.651512265205383301e-01
7.670170068740844727e-01
-1.309659928083419800e-01
-7.007037401199340820e-01
1.661206409335136414e-02
-7.301267385482788086e-01
1.760605424642562866e-01
-1.092662438750267029e-01
-5.230079889297485352e-01
-7.378653883934020996e-01
4.234462976455688477e-01
1.197453856468200684e+00
1.939642727375030518e-01
6.694003343582153320e-01
-6.226532459259033203e-01
-4.317641258239746094e-01
-9.578195810317993164e-01
-4.811829030513763428e-01
-1.598249226808547974e-01
20 20
-1.551087051630020142e-01
-6.486337631940841675e-02
4.092223197221755981e-02
5.692191720008850098e-01
-9.564603678882122040e-03
-7.924294471740722656e-02
-1.008210256695747375e-01
4.924973472952842712e-02
5.566067621111869812e-02
-5.354978889226913452e-02
9.274198673665523529e-03
5.406109616160392761e-02
1.117706391960382462e-02
3.417040221393108368e-03
1.138235330581665039e-01
1.204768121242523193e-01
1.051593050360679626e-01
-2.437700517475605011e-02
-1.046110466122627258e-01
-9.141018986701965332e-02
-7.542300224304199219e-02
-3.193282755091786385e-04
9.130714833736419678e-02
9.177085943520069122e-03
-3.495540618896484375e-01
-1.828058212995529175e-01
-1.929569542407989502e-01
2.989935688674449921e-02
2.719032168388366699e-01
-1.009366139769554138e-01
-1.061054542660713196e-01
1.596393436193466187e-02
-2.872639708220958710e-02
3.256223164498806000e-03
-1.246829330921173096e-02
1.459659934043884277e-01
1.420879811048507690e-01
-6.420625746250152588e-02
-1.774062169715762138e-03
-1.693555414676666260e-01
7.939947396516799927e-02
2.201843075454235077e-02
4.010025784373283386e-02
-5.625792145729064941e-01
4.060782119631767273e-02
5.743817612528800964e-02
3.062567412853240967e-01
-1.801433786749839783e-02
-3.998826071619987488e-02
4.463947191834449768e-02
8.735618740320205688e-02
1.255551576614379883e-01
-1.028253659605979919e-01
-7.008301559835672379e-03
-6.316590309143066406e-02
9.697487205266952515e-02
-4.335406795144081116e-02
3.622333332896232605e-02
5.308560281991958618e-02
1.478417515754699707e-01
1.677997857332229614e-01
5.315420776605606079e-02
2.645380608737468719e-02
-1.150320321321487427e-01
-3.696313202381134033e-01
-2.047154456377029419e-01
-1.336997300386428833e-01
3.147993236780166626e-02
1.151472553610801697e-01
1.065689250826835632e-01
-2.894825339317321777e-01
-1.000609621405601501e-02
-6.627335399389266968e-02
7.083194702863693237e-02
-1.425232440233230591e-01
8.166469633579254150e-02
-6.496753543615341187e-02
-4.132562130689620972e-02
1.183269396424293518e-01
-9.967756271362304688e-02
9.537750482559204102e-02
-2.886996865272521973e-01
-1.255985498428344727e-01
2.979675233364105225e-01
-2.408110350370407104e-01
-6.229523196816444397e-02
-2.500569522380828857e-01
-1.864331811666488647e-01
-1.148545220494270325e-01
2.610383331775665283e-01
-9.979037940502166748e-02
-1.977698206901550293e-01
1.632475554943084717e-01
-1.630199700593948364e-01
-4.042311012744903564e-02
-1.661559194326400757e-01
-1.226892471313476562e-01
1.622669994831085205e-01
2.319382578134536743e-01
-2.052607834339141846e-01
1.872018128633499146e-01
5.017935484647750854e-02
-9.750883094966411591e-03
-1.585312932729721069e-01
-2.721154391765594482e-01
6.657721847295761108e-02
-3.891570121049880981e-02
-4.163330420851707458e-02
-3.712841076776385307e-03
1.072558909654617310e-01
-4.229452311992645264e-01
7.091286033391952515e-02
-3.808818757534027100e-02
-2.499901503324508667e-02
-9.988424181938171387e-02
-1.100969407707452774e-02
-2.169758081436157227e-01
9.619534015655517578e-02
2.228773431852459908e-03
-2.894230931997299194e-02
-1.882521957159042358e-01
-4.902757331728935242e-02
4.225737228989601135e-02
5.861191749572753906e-01
-1.266671717166900635e-02
-1.652416586875915527e-01
-5.978414416313171387e-02
4.093591123819351196e-04
1.398342698812484741e-01
-1.300966180860996246e-02
7.072114944458007812e-02
-4.256580397486686707e-02
-6.428047269582748413e-02
-4.527495428919792175e-02
1.254666298627853394e-01
1.233147680759429932e-01
1.162788271903991699e-02
1.470190845429897308e-02
-4.705666005611419678e-02
-1.148477569222450256e-01
1.065668165683746338e-01
-7.820443809032440186e-02
-1.666552871465682983e-01
-1.170684471726417542e-01
7.369603514671325684e-01
1.262667328119277954e-01
-2.486262321472167969e-01
-2.440066933631896973e-01
-5.171419307589530945e-02
-7.912651449441909790e-02
6.690177917480468750e-01
-2.001591026782989502e-01
3.649613261222839355e-02
-1.208354383707046509e-01
-7.998757995665073395e-03
-8.156339824199676514e-02
3.647869527339935303e-01
7.580921053886413574e-02
2.049569506198167801e-03
-2.164531201124191284e-01
1.202487871050834656e-01
1.454862356185913086e-01
1.389886438846588135e-02
-9.010504186153411865e-02
-3.943330943584442139e-01
-1.565865427255630493e-01
-1.048288941383361816e-01
2.658151276409626007e-02
2.004638910293579102e-01
6.087199971079826355e-02
-2.901238203048706055e-01
2.850425057113170624e-02
1.313082873821258545e-01
-5.426652356982231140e-02
-1.904252022504806519e-01
2.216185815632343292e-02
-5.636652931571006775e-02
1.408760398626327515e-01
1.040626168251037598e-01
-9.351087361574172974e-02
1.042925044894218445e-01
6.238326430320739746e-02
-1.296764612197875977e-01
-9.974642097949981689e-02
-2.410458773374557495e-01
-1.519987285137176514e-01
-2.345138341188430786e-01
1.311970055103302002e-01
1.438809484243392944e-01
1.435891538858413696e-01
-2.238024473190307617e-01
5.133618786931037903e-02
2.057033777236938477e-01
-1.133329793810844421e-01
-1.368415802717208862e-01
7.323017716407775879e-02
-1.022817194461822510e-01
1.137920394539833069e-01
4.808367043733596802e-02
-2.624266147613525391e-01
1.426705569028854370e-01
-1.253889352083206177e-01
7.984849810600280762e-02
1.650071442127227783e-01
4.052609950304031372e-02
-4.634980857372283936e-01
-1.080032065510749817e-02
-2.592230157461017370e-04
1.748018339276313782e-02
3.753537684679031372e-02
7.701052725315093994e-02
-6.086422502994537354e-02
7.419610768556594849e-02
-1.564190024510025978e-03
-1.020156070590019226e-01
-3.325029462575912476e-02
3.131473064422607422e-02
-4.436102509498596191e-02
-1.894771680235862732e-02
-1.090219095349311829e-01
2.130044996738433838e-02
3.928441926836967468e-02
1.161427423357963562e-01
-4.678830504417419434e-02
1.413588404655456543e+00
4.109315574169158936e-02
1.021446287631988525e-02
-6.086375191807746887e-02
-5.517417937517166138e-02
-1.289940327405929565e-01
8.564682006835937500e-01
8.039797656238079071e-03
-3.603856265544891357e-02
1.290197968482971191e-01
-6.031869724392890930e-02
-1.498097926378250122e-01
4.460955858230590820e-01
-1.248095333576202393e-01
-1.464748531579971313e-01
8.841516077518463135e-02
2.826872169971466064e-01
3.648063167929649353e-02
2.966488152742385864e-02
-6.883808374404907227e-01
-6.667307764291763306e-02
9.825497120618820190e-02
-2.367725595831871033e-02
-2.183451876044273376e-02
-6.040054839104413986e-03
5.213968455791473389e-02
-1.454981416463851929e-01
7.635531015694141388e-03
6.221042573451995850e-02
-1.588665992021560669e-01
-2.329692393541336060e-01
-6.324382871389389038e-02
-8.192425221204757690e-02
1.113420724868774414e-01
8.835551887750625610e-02
-6.289985775947570801e-02
5.518402159214019775e-02
8.335018157958984375e-02
3.838951885700225830e-02
-2.230182737112045288e-01
2.671265006065368652e-01
1.920062005519866943e-01
-5.769762769341468811e-02
1.648612320423126221e-01
-9.381169453263282776e-03
-7.539862394332885742e-02
4.630132764577865601e-02
1.227297186851501465e-01
-8.042636513710021973e-02
1.193437129259109497e-01
1.170657016336917877e-02
3.776359930634498596e-02
3.096215240657329559e-02
8.720295503735542297e-03
-1.287597715854644775e-01
5.182275921106338501e-02
1.765336096286773682e-01
-3.372598290443420410e-01
-1.755772083997726440e-01
-1.735784113407135010e-01
8.916491866111755371e-01
3.282887861132621765e-02
-1.313991751521825790e-02
-3.087212145328521729e-01
-2.228725105524063110e-01
1.940389275550842285e-01
5.052109956741333008e-01
-2.643712162971496582e-01
1.266353875398635864e-01
-3.953963220119476318e-01
-2.796067297458648682e-01
-3.312035202980041504e-01
-2.835392393171787262e-02
6.740564107894897461e-02
1.224045529961585999e-01
1.487768143415451050e-01
4.552900791168212891e-02
-1.408944278955459595e-01
-2.745615690946578979e-02
1.351713687181472778e-01
-4.578648135066032410e-02
-2.294793426990509033e-01
9.799968451261520386e-02
-7.369766384363174438e-02
5.377499386668205261e-02
-1.279480988159775734e-03
-1.269775927066802979e-01
-8.356886357069015503e-02
8.051031827926635742e-02
-1.086635664105415344e-01
-3.187195211648941040e-02
-1.066980734467506409e-01
-1.819801330566406250e-02
-1.941767870448529720e-03
-4.556575790047645569e-03
-6.394008547067642212e-02
6.147028878331184387e-02
-7.363874465227127075e-02
-1.664332300424575806e-01
-8.276773989200592041e-02
-1.316074728965759277e+00
3.844367340207099915e-02
-9.631460905075073242e-02
-1.338428109884262085e-01
-4.046890884637832642e-02
1.835036128759384155e-01
-9.661781191825866699e-01
-1.565349102020263672e-01
1.044548079371452332e-01
-1.829359531402587891e-01
-1.070183590054512024e-01
6.562009453773498535e-02
-4.735929369926452637e-01
1.659025102853775024e-01
1.570546925067901611e-01
-6.123780086636543274e-02
-2.584775388240814209e-01
3.802565159276127815e-03
-3.619411960244178772e-02
6.603077054023742676e-01
-5.826752260327339172e-02
-6.941901985555887222e-03
2.631199359893798828e-02
-7.687275856733322144e-02
2.057705074548721313e-02
-8.701791614294052124e-02
5.305499956011772156e-02
-1.474827295169234276e-03
3.053974919021129608e-02
6.824219226837158203e-02
2.773966789245605469e-01
1.535796839743852615e-02
1.409573853015899658e-01
-3.307789564132690430e-02
-1.279941946268081665e-01
-3.038780018687248230e-02
-4.082610830664634705e-02
5.733044445514678955e-02
-9.041524678468704224e-02
8.303440362215042114e-02
-6.618621945381164551e-01
-2.835975885391235352e-01
-1.765355765819549561e-01
-1.158816274255514145e-02
1.734281182289123535e-01
1.209181454032659531e-02
-3.407637178897857666e-01
8.904754370450973511e-02
-6.986901909112930298e-02
-1.811817586421966553e-01
-5.011796578764915466e-02
8.649697899818420410e-02
2.419000305235385895e-02
-2.139895036816596985e-02
-4.921693354845046997e-02
-2.405470460653305054e-01
8.044832944869995117e-02
-1.300092488527297974e-01
-2.300502499565482140e-03
8.672414720058441162e-02
-2.827799022197723389e-01
-2.384822368621826172e-01
-1.308041810989379883e-01
-2.195325046777725220e-01
9.416022337973117828e-03
-1.487971749156713486e-02
-1.578556895256042480e-01
-1.559019237756729126e-01
1.715025454759597778e-01
-4.473942145705223083e-02
-1.993842236697673798e-02
-4.771615378558635712e-03
4.031415097415447235e-03
-1.753991656005382538e-02
3.033820167183876038e-02
-1.467770785093307495e-01
20 1
-1.490520834922790527e-01
5.223973989486694336e-01
2.847366631031036377e-01
2.777432799339294434e-01
3.530405163764953613e-01
-5.932704806327819824e-01
3.083293735980987549e-01
4.197316169738769531e-01
4.538106918334960938e-01
-8.377249538898468018e-02
2.035474926233291626e-01
4.096104204654693604e-01
-1.944146603345870972e-01
2.087747901678085327e-01
1.314136683940887451e-01
2.988505065441131592e-01
2.077865600585937500e-01
-4.738059826195240021e-03
3.382463157176971436e-01
2.978010773658752441e-01
20
-3.616717457771301270e-02
2.319306731224060059e-01
-9.875218383967876434e-03
8.334301412105560303e-02
4.256413131952285767e-02
1.113139986991882324e-01
-1.722740940749645233e-02
-3.345376253128051758e-01
1.235782057046890259e-01
5.170914530754089355e-01
2.714070379734039307e-01
-3.936753869056701660e-01
-1.971497945487499237e-02
-4.013905674219131470e-02
-6.163781881332397461e-01
8.110835403203964233e-02
4.040245711803436279e-01
1.056279800832271576e-02
2.862098217010498047e-01
2.701225280761718750e-01
20
6.371142715215682983e-02
-2.396456301212310791e-01
-1.717810146510601044e-02
-5.257647857069969177e-02
-2.197682112455368042e-01
-4.745554924011230469e-01
1.188149526715278625e-01
-1.186186373233795166e-01
1.166600584983825684e-01
3.929168730974197388e-02
-2.365371137857437134e-01
-1.668323725461959839e-01
7.096128165721893311e-02
-1.261346973478794098e-02
-2.753824181854724884e-02
-2.677050232887268066e-02
-1.983522921800613403e-01
-5.187354516237974167e-03
-7.942792028188705444e-02
2.568413317203521729e-01
1
1.368204653263092041e-01
